{"learner":{"attributes":{"best_iteration":"88","best_ntree_limit":"89","best_score":"0.00463990121747159"},"feature_names":["category","amt","lat","long","merch_lat","merch_long","age","hour","day","month"],"feature_types":["c","float","float","float","float","float","int","int","int","int"],"gradient_booster":{"model":{"gbtree_model_param":{"num_parallel_tree":"1","num_trees":"99","size_leaf_vector":"0"},"tree_info":[0,0,0,0,0,0,0,0,0,0,0,0,0,0,0,0,0,0,0,0,0,0,0,0,0,0,0,0,0,0,0,0,0,0,0,0,0,0,0,0,0,0,0,0,0,0,0,0,0,0,0,0,0,0,0,0,0,0,0,0,0,0,0,0,0,0,0,0,0,0,0,0,0,0,0,0,0,0,0,0,0,0,0,0,0,0,0,0,0,0,0,0,0,0,0,0,0,0,0],"trees":[{"base_weights":[-1.9791379E0,-1.9883219E0,-8.120301E-1,-5.982154E-1,-1.701695E0,-1.4589626E0,8.1116587E-1,1.8309859E0,-1.9532164E0,-5.285714E-1,-1.6631917E0,-2.8956228E-1,1.835443E0,1.3548387E0,5.909775E-1,-1.5466666E0,-5.976069E-1,9.219858E-1,-5.832168E-1,-1.8671411E0,-1.2254902E0,5.882353E-1,-1.1891892E0,5.921312E-1,-4.4000003E-1,5.2000004E-1,5.945946E-1,-1.8433421E0,1.4084508E-1,5.619048E-1,1.4634146E-1,-1.2727273E0,-5.7506496E-1,-5.914286E-1,3.939394E-1,1.2888889E0,2.857143E-1,4E-1,-1.3939394E0,-1.0909092E-1,4.7368425E-1,-5.760684E-1,-2.6666668E-1,-2.857143E-1,4.5454547E-1,2.4545455E-1,-1.7142859E-1,3.6E-1,-4.6478876E-1,5.7037044E-1,-5.5636364E-1,1.0000001E-1,4.3783784E-1,2.2105263E-1,-5.084746E-2,-1.0000001E-1,3E-1,-2.2105263E-1,-5.3924054E-1],"categories":[0,1,5,6,7,8,9,10,11,12,13,1,5,7,8,9,10,11,12,13,9,12,13,13,0,1,2,3,4,5,6,7,8,9,10,13,8,9,13],"categories_nodes":[4,8,11,12,17,31,34],"categories_segments":[0,11,20,23,24,36,38],"categories_sizes":[11,9,3,1,12,2,1],"default_left":[0,0,0,0,1,0,0,0,1,0,0,1,1,0,0,0,0,1,0,0,0,0,0,0,0,0,0,0,0,0,0,1,0,0,1,0,0,0,0,0,0,0,0,0,0,0,0,0,0,0,0,0,0,0,0,0,0,0,0],"id":0,"left_children":[1,3,5,-1,7,9,11,13,15,17,19,21,23,25,-1,27,-1,29,-1,31,33,35,37,-1,-1,-1,39,41,43,-1,45,47,-1,-1,49,51,53,55,57,-1,-1,-1,-1,-1,-1,-1,-1,-1,-1,-1,-1,-1,-1,-1,-1,-1,-1,-1,-1],"loss_changes":[7.264375E2,1.0728125E2,5.598357E2,0E0,1.1831196E3,7.146826E1,1.7218585E2,3.202362E0,1.6478516E1,1.4551929E2,2.5541504E1,5.9334026E1,3.897989E1,5.659523E0,0E0,5.6582E1,0E0,2.5728458E1,0E0,3.791626E0,1.23992096E2,7.7393093E0,1.2596886E1,0E0,0E0,0E0,9.299108E0,5.319641E0,2.8111092E1,0E0,1.0353184E1,1.5023813E1,0E0,0E0,1.1536723E2,1.347147E0,5.874857E0,2.5333333E0,7.4257507E0,0E0,0E0,0E0,0E0,0E0,0E0,0E0,0E0,0E0,0E0,0E0,0E0,0E0,0E0,0E0,0E0,0E0,0E0,0E0,0E0],"parents":[2147483647,0,0,1,1,2,2,4,4,5,5,6,6,7,7,8,8,9,9,10,10,11,11,12,12,13,13,15,15,17,17,19,19,20,20,21,21,22,22,26,26,27,27,28,28,30,30,31,31,34,34,35,35,36,36,37,37,38,38],"right_children":[2,4,6,-1,8,10,12,14,16,18,20,22,24,26,-1,28,-1,30,-1,32,34,36,38,-1,-1,-1,40,42,44,-1,46,48,-1,-1,50,52,54,56,58,-1,-1,-1,-1,-1,-1,-1,-1,-1,-1,-1,-1,-1,-1,-1,-1,-1,-1,-1,-1],"split_conditions":[6.4258E2,2.6384E2,2.2E1,-5.982154E-1,NaN,4E0,5.3E1,2.9687E2,NaN,5.3E1,5.3E1,NaN,NaN,4E0,5.909775E-1,4.2026E2,-5.976069E-1,NaN,-5.832168E-1,1.2E1,1.2E1,3.1E1,3E1,5.921312E-1,-4.4000003E-1,5.2000004E-1,1.1E1,2.3E1,2.1E1,5.619048E-1,3.8E1,NaN,-5.7506496E-1,-5.914286E-1,NaN,3.38419E1,6E0,3.86171E1,9.2742E2,-1.0909092E-1,4.7368425E-1,-5.760684E-1,-2.6666668E-1,-2.857143E-1,4.5454547E-1,2.4545455E-1,-1.7142859E-1,3.6E-1,-4.6478876E-1,5.7037044E-1,-5.5636364E-1,1.0000001E-1,4.3783784E-1,2.2105263E-1,-5.084746E-2,-1.0000001E-1,3E-1,-2.2105263E-1,-5.3924054E-1],"split_indices":[1,1,7,0,0,7,6,1,0,6,6,0,0,7,0,1,0,0,0,7,7,6,6,0,0,0,7,7,7,0,6,0,0,0,0,2,9,2,1,0,0,0,0,0,0,0,0,0,0,0,0,0,0,0,0,0,0,0,0],"split_type":[0,0,0,0,1,0,0,0,1,0,0,1,1,0,0,0,0,1,0,0,0,0,0,0,0,0,0,0,0,0,0,1,0,0,1,0,0,0,0,0,0,0,0,0,0,0,0,0,0,0,0,0,0,0,0,0,0,0,0],"sum_hessian":[6.792125E4,6.739025E4,5.31E2,6.606375E4,1.3265E3,3.7975E2,1.5125E2,8.775E1,1.23875E3,6.9E1,3.1075E2,7.325E1,7.8E1,2.225E1,6.55E1,1.115E2,1.12725E3,3.425E1,3.475E1,2.0975E2,1.01E2,3.725E1,3.6E1,7.525E1,2.75E0,1.4E1,8.25E0,9.475E1,1.675E1,1.475E1,1.95E1,1.825E1,1.915E2,6.9E1,3.2E1,1.025E1,2.7E1,4E0,3.2E1,4.5E0,3.75E0,8.675E1,8E0,9.5E0,7.25E0,1E1,9.5E0,1.5E0,1.675E1,1.925E1,1.275E1,2E0,8.25E0,1.325E1,1.375E1,2E0,2E0,1.325E1,1.875E1],"tree_param":{"num_deleted":"0","num_feature":"10","num_nodes":"59","size_leaf_vector":"0"}},{"base_weights":[-1.5314881E0,-1.5387888E0,-6.1904997E-1,-1.5433023E0,-1.313465E0,-1.118858E0,6.105424E-1,-4.638259E-1,-1.5182222E0,1.4168867E0,-1.5097151E0,-3.9743403E-1,-1.2801629E0,-2.0890516E-1,1.4164053E0,-1.5216049E0,-1.0743021E0,1.0450882E0,4.585064E-1,-1.1790427E0,-4.6255565E-1,6.958013E-1,-4.532461E-1,-1.4330348E0,-9.4926554E-1,4.3845743E-1,-8.905462E-1,4.592898E-1,-3.5700548E-1,-1.4963696E0,-4.6293825E-1,7.374062E-2,-4.520306E-1,4.0184814E-1,4.7007248E-1,-1.3402339E0,7.6144886E-1,4.3887156E-1,1.0760087E-1,-9.189018E-1,-1.4721282E0,-4.588127E-1,3.0168474E-1,5.6486344E-1,-6.974073E-1,2.512108E-1,-1.0713979E0,-4.3465972E-1,-4.60366E-1,2.0284517E-1,-2.1727394E-1,-8.2541116E-2,3.7975547E-1,-4.4463742E-1,-2.010579E-1,-2.892712E-1,3.5212612E-1,1.5717629E-1,-1.812695E-1,1.4378507E-1,-3.842591E-1,-1.4611617E-1,-4.431127E-1,4.4457048E-1,-4.3514788E-1,2.2583407E-1,-1.5374587E-1,8.904682E-2,-4.0352508E-1,-4.7640022E-2,2.8724235E-1,-3.8032427E-1,-1.0398957E-1],"categories":[0,1,5,6,7,8,9,10,11,12,13,1,5,7,8,9,10,11,12,13,9,12,13,13,0,1,6,8,11,12,0,1,5,7,8,9,10,11,12,0,1,2,3,4,5,6,7,8,9,10,13,8,13],"categories_nodes":[4,10,13,14,15,16,21,39,42],"categories_segments":[0,11,20,23,24,30,39,51,52],"categories_sizes":[11,9,3,1,6,9,12,1,1],"default_left":[0,0,0,0,1,0,0,0,0,0,1,0,0,1,1,1,1,0,0,0,0,1,0,0,0,0,0,0,0,0,0,0,0,0,0,0,0,0,0,1,0,0,1,0,0,0,0,0,0,0,0,0,0,0,0,0,0,0,0,0,0,0,0,0,0,0,0,0,0,0,0,0,0],"id":1,"left_children":[1,3,5,7,9,11,13,-1,15,17,19,21,23,25,27,29,31,33,-1,35,-1,37,-1,39,41,43,45,-1,-1,47,-1,49,-1,-1,51,53,55,-1,57,59,61,-1,63,65,67,69,71,-1,-1,-1,-1,-1,-1,-1,-1,-1,-1,-1,-1,-1,-1,-1,-1,-1,-1,-1,-1,-1,-1,-1,-1,-1,-1],"loss_changes":[4.1340625E2,6.071875E1,3.0514557E2,1.875E0,6.55062E2,4.052188E1,9.5272644E1,0E0,7.5253906E0,1.8105011E0,1.0267822E1,8.124064E1,1.319339E1,3.224258E1,2.3512375E1,9.7753906E-1,2.4700985E1,3.1164417E0,0E0,3.3860092E1,0E0,1.5150272E1,0E0,2.563202E0,6.8588234E1,5.805831E0,7.59754E0,0E0,0E0,2.8881836E0,0E0,7.46261E0,0E0,0E0,5.70559E0,8.257202E0,7.314771E0,0E0,6.3269734E0,8.92822E0,1.4907837E-1,0E0,6.538245E1,7.3643913E0,3.118021E0,1.7919117E0,3.947548E0,0E0,0E0,0E0,0E0,0E0,0E0,0E0,0E0,0E0,0E0,0E0,0E0,0E0,0E0,0E0,0E0,0E0,0E0,0E0,0E0,0E0,0E0,0E0,0E0,0E0,0E0],"parents":[2147483647,0,0,1,1,2,2,3,3,4,4,5,5,6,6,8,8,9,9,10,10,11,11,12,12,13,13,14,14,15,15,16,16,17,17,19,19,21,21,23,23,24,24,25,25,26,26,29,29,31,31,34,34,35,35,36,36,38,38,39,39,40,40,42,42,43,43,44,44,45,45,46,46],"right_children":[2,4,6,8,10,12,14,-1,16,18,20,22,24,26,28,30,32,34,-1,36,-1,38,-1,40,42,44,46,-1,-1,48,-1,50,-1,-1,52,54,56,-1,58,60,62,-1,64,66,68,70,72,-1,-1,-1,-1,-1,-1,-1,-1,-1,-1,-1,-1,-1,-1,-1,-1,-1,-1,-1,-1,-1,-1,-1,-1,-1,-1],"split_conditions":[6.4258E2,2.6384E2,2.2E1,2.2E1,NaN,4E0,5.3E1,-4.638259E-1,2.2678E2,2.9687E2,NaN,5.3E1,5.3E1,NaN,NaN,NaN,NaN,4E0,4.585064E-1,5.0306E2,-4.6255565E-1,NaN,-4.532461E-1,1.1E1,1.2E1,5.1E1,3.1E1,4.592898E-1,-3.5700548E-1,2.507E1,-4.6293825E-1,5.1E1,-4.520306E-1,4.0184814E-1,1.1E1,2.2E1,3.41092E1,4.3887156E-1,4.1E1,NaN,-1.331171E2,-4.588127E-1,NaN,6E0,3.60434E1,4.46255E1,-1.01365005E2,-4.3465972E-1,-4.60366E-1,2.0284517E-1,-2.1727394E-1,-8.2541116E-2,3.7975547E-1,-4.4463742E-1,-2.010579E-1,-2.892712E-1,3.5212612E-1,1.5717629E-1,-1.812695E-1,1.4378507E-1,-3.842591E-1,-1.4611617E-1,-4.431127E-1,4.4457048E-1,-4.3514788E-1,2.2583407E-1,-1.5374587E-1,8.904682E-2,-4.0352508E-1,-4.7640022E-2,2.8724235E-1,-3.8032427E-1,-1.0398957E-1],"split_indices":[1,1,7,7,0,7,6,0,1,1,0,6,6,0,0,0,0,7,0,1,0,0,0,7,7,6,6,0,0,1,0,6,0,0,7,7,2,0,6,0,3,0,0,8,2,2,5,0,0,0,0,0,0,0,0,0,0,0,0,0,0,0,0,0,0,0,0,0,0,0,0,0,0],"split_type":[0,0,0,0,1,0,0,0,0,0,1,0,0,1,1,1,1,0,0,0,0,1,0,0,0,0,0,0,0,0,0,0,0,0,0,0,0,0,0,1,0,0,1,0,0,0,0,0,0,0,0,0,0,0,0,0,0,0,0,0,0,0,0,0,0,0,0,0,0,0,0,0,0],"sum_hessian":[6.220071E4,6.1706297E4,4.9441525E2,6.0488773E4,1.2175221E3,3.5159006E2,1.428252E2,5.4390566E4,6.098206E3,8.122669E1,1.1362954E3,6.488059E1,2.8670947E2,7.118301E1,7.16422E1,6.049678E3,4.8527443E1,2.1128582E1,6.009811E1,1.0398924E2,1.0323062E3,3.292578E1,3.1954807E1,1.938306E2,9.2878876E1,3.6692482E1,3.4490524E1,6.902111E1,2.62108E0,2.8171096E3,3.2325688E3,1.350528E1,3.5022163E1,1.3094673E1,8.033908E0,9.629927E1,7.6899743E0,1.3644356E1,1.9281425E1,1.5428551E1,1.7840204E2,6.3301258E1,2.9577616E1,3.3470394E1,3.22209E0,4.6629896E0,2.9827534E1,1.2727009E3,1.5444088E3,7.7827034E0,5.722576E0,4.486638E0,3.54727E0,7.84701E1,1.782917E1,1.2248329E0,6.4651413E0,1.23326025E1,6.9488225E0,3.1061177E0,1.23224325E1,1.3825158E0,1.7701952E2,1.776552E1,1.1812096E1,2.8755909E1,4.714484E0,1.4846919E0,1.7373981E0,3.4406981E0,1.2222916E0,2.2879864E1,6.94767E0],"tree_param":{"num_deleted":"0","num_feature":"10","num_nodes":"73","size_leaf_vector":"0"}},{"base_weights":[-1.3275123E0,-1.3342277E0,-5.191414E-1,-1.3387146E0,-1.1493343E0,-9.483992E-1,4.9052286E-1,-1.3414704E0,-1.3139545E0,5.8152056E-1,-1.2991865E0,-3.261129E-1,-1.0931566E0,-1.6558826E-1,1.2194327E0,-1.3239077E0,-4.033187E-1,-1.2926811E0,-1.3418514E0,-9.597443E-1,1.2117803E0,-9.935747E-1,-4.014045E-1,5.514801E-1,-3.9182734E-1,-1.2166041E0,-8.1992817E-1,3.1052077E-1,-6.926976E-1,3.9794275E-1,-3.0551156E-1,-1.2632926E0,-4.0315133E-1,-1.2543088E0,-1.321694E0,-4.0349033E-1,-9.0986675E-1,-1.1574297E0,6.102815E-1,8.637398E-1,3.9714372E-1,-1.263413E0,-1.5326026E-1,3.7770596E-1,7.573154E-2,-7.507871E-1,-1.2602715E0,-3.974559E-1,2.559996E-1,9.6266246E-1,1.02675125E-1,-1.5250827E-1,-1.0888884E0,1.0032916E0,-3.9899248E-1,-3.928577E-1,-2.944461E-1,-3.3181998E-1,-3.9817154E-1,-1.3985696E-1,-3.6547956E-1,-2.2181407E-1,-3.8381934E-1,1.6108586E-1,3.8430014E-1,7.4776043E-3,-4.0038E-1,-1.4877188E-1,3.2498664E-1,8.321604E-2,-3.5229376E-1,2.975898E-1,-2.9335007E-1,-1.940165E-1,-3.8140467E-1,3.8323638E-1,-3.741379E-1,4.1552714E-1,1.4339258E-1,1.4239338E-1,-8.4535465E-2,1.958655E-1,-1.2900469E-1,-3.762443E-1,6.541516E-2],"categories":[0,1,5,6,7,8,9,10,11,12,13,0,6,8,11,12,1,5,7,8,9,10,11,12,13,9,12,13,13,0,1,2,3,4,5,6,7,8,9,10,13,0,1,3,4,8,9,11,12,1,4,5,7,10,13,0,11,12,8,9,9,11,12,13,13],"categories_nodes":[4,8,10,13,14,23,31,34,36,45,46,48],"categories_segments":[0,11,16,25,28,29,41,49,55,58,60,64],"categories_sizes":[11,5,9,3,1,12,8,6,3,2,4,1],"default_left":[0,0,0,0,1,0,0,0,1,0,1,0,0,1,1,0,0,0,0,0,0,0,0,1,0,0,0,0,0,0,0,1,0,0,1,0,1,0,0,0,0,0,0,0,0,1,1,0,1,0,0,0,0,0,0,0,0,0,0,0,0,0,0,0,0,0,0,0,0,0,0,0,0,0,0,0,0,0,0,0,0,0,0,0,0],"id":2,"left_children":[1,3,5,7,9,11,13,15,17,19,21,23,25,27,29,31,-1,33,35,37,39,41,-1,43,-1,45,47,49,51,-1,-1,53,-1,55,57,-1,59,61,-1,63,-1,65,67,-1,69,71,73,-1,75,77,79,81,83,-1,-1,-1,-1,-1,-1,-1,-1,-1,-1,-1,-1,-1,-1,-1,-1,-1,-1,-1,-1,-1,-1,-1,-1,-1,-1,-1,-1,-1,-1,-1,-1],"loss_changes":[2.8116406E2,4.1179688E1,1.8657603E2,1.6796875E0,3.1902173E2,2.6816559E1,6.1781616E1,5.390625E-1,1.2822266E0,9.680827E1,1.2074829E1,5.090551E1,7.2425537E0,1.7442392E1,1.5990746E1,6.1748047E0,0E0,1.5834961E0,1.7011719E0,1.9598965E1,1.5987091E0,2.9561295E1,0E0,1.0503853E1,0E0,2.4345856E0,4.3308075E1,4.8835015E0,6.872404E0,0E0,0E0,5.0503833E2,0E0,1.789209E1,4.9169922E-1,0E0,1.9845114E0,4.800949E-1,0E0,2.0396118E0,0E0,9.130264E0,1.4533634E1,0E0,5.340083E0,7.5854063E0,2.0056152E-1,0E0,4.166763E1,1.1324377E0,4.2800293E0,3.650669E0,4.336012E0,0E0,0E0,0E0,0E0,0E0,0E0,0E0,0E0,0E0,0E0,0E0,0E0,0E0,0E0,0E0,0E0,0E0,0E0,0E0,0E0,0E0,0E0,0E0,0E0,0E0,0E0,0E0,0E0,0E0,0E0,0E0,0E0],"parents":[2147483647,0,0,1,1,2,2,3,3,4,4,5,5,6,6,7,7,8,8,9,9,10,10,11,11,12,12,13,13,14,14,15,15,17,17,18,18,19,19,20,20,21,21,23,23,25,25,26,26,27,27,28,28,31,31,33,33,34,34,36,36,37,37,39,39,41,41,42,42,44,44,45,45,46,46,48,48,49,49,50,50,51,51,52,52],"right_children":[2,4,6,8,10,12,14,16,18,20,22,24,26,28,30,32,-1,34,36,38,40,42,-1,44,-1,46,48,50,52,-1,-1,54,-1,56,58,-1,60,62,-1,64,-1,66,68,-1,70,72,74,-1,76,78,80,82,84,-1,-1,-1,-1,-1,-1,-1,-1,-1,-1,-1,-1,-1,-1,-1,-1,-1,-1,-1,-1,-1,-1,-1,-1,-1,-1,-1,-1,-1,-1,-1,-1],"split_conditions":[6.4258E2,2.4055E2,2.2E1,2.2E1,NaN,4E0,5.3E1,4E0,NaN,2.6384E2,NaN,5.3E1,5.3E1,NaN,NaN,2.445E1,-4.033187E-1,2.445E1,2.1682E2,5.3E1,2.9687E2,2.2E1,-4.014045E-1,NaN,-3.9182734E-1,1.2E1,1.2E1,-1.187323E2,9.2742E2,3.9794275E-1,-3.0551156E-1,NaN,-4.0315133E-1,1.715E1,NaN,-4.0349033E-1,NaN,3.83847E1,6.102815E-1,5.3E1,3.9714372E-1,4E0,4.2026E2,3.7770596E-1,4.5505905E1,NaN,NaN,-3.974559E-1,NaN,3.85677E1,6E0,4E0,4.663259E1,1.0032916E0,-3.9899248E-1,-3.928577E-1,-2.944461E-1,-3.3181998E-1,-3.9817154E-1,-1.3985696E-1,-3.6547956E-1,-2.2181407E-1,-3.8381934E-1,1.6108586E-1,3.8430014E-1,7.4776043E-3,-4.0038E-1,-1.4877188E-1,3.2498664E-1,8.321604E-2,-3.5229376E-1,2.975898E-1,-2.9335007E-1,-1.940165E-1,-3.8140467E-1,3.8323638E-1,-3.741379E-1,4.1552714E-1,1.4339258E-1,1.4239338E-1,-8.4535465E-2,1.958655E-1,-1.2900469E-1,-3.762443E-1,6.541516E-2],"split_indices":[1,1,7,7,0,7,6,7,0,1,0,6,6,0,0,1,0,1,1,6,1,7,0,0,0,7,7,5,1,0,0,0,0,1,0,0,0,2,0,6,0,7,1,0,4,0,0,0,0,2,9,9,4,0,0,0,0,0,0,0,0,0,0,0,0,0,0,0,0,0,0,0,0,0,0,0,0,0,0,0,0,0,0,0,0],"split_type":[0,0,0,0,1,0,0,0,1,0,1,0,0,1,1,0,0,0,0,0,0,0,0,1,0,0,0,0,0,0,0,1,0,0,1,0,1,0,0,0,0,0,0,0,0,1,1,0,1,0,0,0,0,0,0,0,0,0,0,0,0,0,0,0,0,0,0,0,0,0,0,0,0,0,0,0,0,0,0,0,0,0,0,0,0],"sum_hessian":[5.192043E4,5.1492016E4,4.2841428E2,5.026595E4,1.2260638E3,3.0065274E2,1.2776155E2,4.5183883E4,5.082067E3,9.746154E1,1.1286024E3,5.7353416E1,2.4329932E2,6.7645164E1,6.0116383E1,6.516205E3,3.866768E4,2.9101882E3,2.1718787E3,2.813535E1,6.932619E1,1.3022409E2,9.983783E2,3.0487982E1,2.6865435E1,1.6520512E2,7.809419E1,3.5757904E1,3.1887262E1,5.7760704E1,2.3556807E0,1.6282876E3,4.8879175E3,1.2720364E3,1.6381517E3,2.1542244E3,1.7654306E1,2.6968145E1,1.1672032E0,1.9002495E1,5.0323692E1,9.819018E1,3.203392E1,1.1595942E1,1.889204E1,1.5718893E1,1.4948624E2,5.2993423E1,2.510077E1,7.764426E0,2.7993479E1,1.4077765E1,1.7809496E1,2.2527605E1,1.60576E3,1.0547618E3,2.172745E2,4.6091812E1,1.5920599E3,8.269317E0,9.384991E0,7.6860433E0,1.9282103E1,1.1939029E1,7.0634665E0,5.1754236E0,9.3014755E1,2.5552359E1,6.481562E0,1.6937763E1,1.9542763E0,1.4234946E0,1.4295399E1,3.7041383E0,1.4578209E2,1.5034294E1,1.0066476E1,3.156066E0,4.6083603E0,1.4108636E1,1.3884843E1,3.2609692E0,1.0816796E1,1.5846179E1,1.9633178E0],"tree_param":{"num_deleted":"0","num_feature":"10","num_nodes":"85","size_leaf_vector":"0"}},{"base_weights":[-1.2117448E0,-1.2184271E0,-4.4939083E-1,-1.222843E0,-1.0381905E0,-8.3802736E-1,4.0924186E-1,-1.2262626E0,-1.1923469E0,5.127328E-1,-1.1778934E0,-2.8020465E-1,-9.7551477E-1,-1.224181E-1,1.1027726E0,-1.2080401E0,-3.6879098E-1,-1.134124E0,-1.2075593E0,-8.22529E-1,1.0694293E0,-8.53771E-1,-3.6646563E-1,4.3400016E-1,-3.5551757E-1,-1.0764797E0,-7.4423254E-1,7.017661E-1,-3.524724E-1,3.625917E-1,-2.689534E-1,-1.145925E0,-3.6860073E-1,-3.6649147E-1,-1.0901628E0,-1.2088872E0,-8.116529E-1,-1.0268039E0,4.4419074E-1,7.0360583E-1,3.616583E-1,-1.1281539E0,-1.0786967E-1,3.3976424E-1,3.9061394E-2,-6.0393435E-1,-1.1250046E0,-3.6202264E-1,2.2726198E-1,8.816112E-1,-2.1393757E-1,1.5939891E-2,-7.226004E-1,5.092702E-1,-3.6371553E-1,-3.047375E-1,-3.6874753E-1,-3.5546923E-1,-3.686489E-1,-3.403669E-1,-1.0711332E-1,-1.8375264E-1,-3.483122E-1,3.0422595E-1,5.997204E-2,5.5827163E-3,-3.6198616E-1,-1.12255536E-1,2.7119964E-1,7.49416E-2,-2.904603E-1,1.5850745E-1,-2.8514406E-1,-2.2695397E-1,-3.469485E-1,3.4584108E-1,-3.3590376E-1,4.221844E-2,3.3302748E-1,5.4526422E-2,-1.4858575E-1,-8.961749E-2,-3.1955558E-1],"categories":[0,1,5,6,7,8,9,10,11,12,13,0,1,5,6,7,8,11,12,1,5,7,8,9,10,11,12,13,13,0,1,2,3,4,5,6,7,8,9,10,13,9,12,13,0,1,3,4,8,9,11,12,0,6,8,11,12,8,13],"categories_nodes":[4,8,10,14,23,28,31,35,45,48],"categories_segments":[0,11,19,28,29,41,44,52,57,58],"categories_sizes":[11,8,9,1,12,3,8,5,1,1],"default_left":[0,0,0,0,1,0,0,0,1,0,1,0,0,0,1,0,0,0,0,0,0,0,0,1,0,0,0,0,1,0,0,1,0,0,0,1,0,0,0,0,0,0,0,0,0,1,0,0,1,0,0,0,0,0,0,0,0,0,0,0,0,0,0,0,0,0,0,0,0,0,0,0,0,0,0,0,0,0,0,0,0,0,0],"id":3,"left_children":[1,3,5,7,9,11,13,15,17,19,21,23,25,27,29,31,-1,33,35,37,39,41,-1,43,-1,45,47,49,51,-1,-1,53,-1,-1,55,57,59,61,-1,63,-1,65,67,-1,69,71,73,-1,75,77,-1,79,81,-1,-1,-1,-1,-1,-1,-1,-1,-1,-1,-1,-1,-1,-1,-1,-1,-1,-1,-1,-1,-1,-1,-1,-1,-1,-1,-1,-1,-1,-1],"loss_changes":[2.1103125E2,3.1503906E1,1.2129615E2,2.7265625E0,2.1537195E2,1.8888779E1,4.2026443E1,5.1171875E-1,2.2504883E0,6.2283394E1,1.1828857E1,3.3348854E1,3.8701782E0,1.2611907E1,1.1539627E1,5.279785E0,0E0,1.9888916E0,7.138672E-1,1.3221806E1,2.0760422E0,2.2657448E1,0E0,7.9914675E0,0E0,2.4623413E0,2.9044857E1,4.334848E0,7.0540576E0,0E0,0E0,2.5077026E2,0E0,0E0,4.786682E0,8.0566406E-2,1.624217E0,5.9220123E-1,0E0,2.6635542E0,0E0,7.3347244E0,8.702175E0,0E0,4.4115524E0,6.356111E0,5.5348206E-1,0E0,2.8085442E1,2.1069012E0,0E0,2.3670628E0,3.4261227E0,0E0,0E0,0E0,0E0,0E0,0E0,0E0,0E0,0E0,0E0,0E0,0E0,0E0,0E0,0E0,0E0,0E0,0E0,0E0,0E0,0E0,0E0,0E0,0E0,0E0,0E0,0E0,0E0,0E0,0E0],"parents":[2147483647,0,0,1,1,2,2,3,3,4,4,5,5,6,6,7,7,8,8,9,9,10,10,11,11,12,12,13,13,14,14,15,15,17,17,18,18,19,19,20,20,21,21,23,23,25,25,26,26,27,27,28,28,31,31,34,34,35,35,36,36,37,37,39,39,41,41,42,42,44,44,45,45,46,46,48,48,49,49,51,51,52,52],"right_children":[2,4,6,8,10,12,14,16,18,20,22,24,26,28,30,32,-1,34,36,38,40,42,-1,44,-1,46,48,50,52,-1,-1,54,-1,-1,56,58,60,62,-1,64,-1,66,68,-1,70,72,74,-1,76,78,-1,80,82,-1,-1,-1,-1,-1,-1,-1,-1,-1,-1,-1,-1,-1,-1,-1,-1,-1,-1,-1,-1,-1,-1,-1,-1,-1,-1,-1,-1,-1,-1],"split_conditions":[6.4258E2,2.4055E2,2.2E1,2.2E1,NaN,4E0,5.3E1,4E0,NaN,2.6384E2,NaN,5.3E1,5.3E1,3.1E1,NaN,2.445E1,-3.6879098E-1,7.24E0,2.2678E2,5.3E1,2.9687E2,2.2E1,-3.6646563E-1,NaN,-3.5551757E-1,1.2E1,1.2E1,6E0,NaN,3.625917E-1,-2.689534E-1,NaN,-3.6860073E-1,-3.6649147E-1,5.329E1,NaN,-1.119817E2,3.83847E1,4.4419074E-1,4E0,3.616583E-1,4E0,4.2026E2,3.3976424E-1,9.2742E2,NaN,3.1E1,-3.6202264E-1,NaN,5E0,-2.1393757E-1,4.1770546E1,9.2742E2,5.092702E-1,-3.6371553E-1,-3.047375E-1,-3.6874753E-1,-3.5546923E-1,-3.686489E-1,-3.403669E-1,-1.0711332E-1,-1.8375264E-1,-3.483122E-1,3.0422595E-1,5.997204E-2,5.5827163E-3,-3.6198616E-1,-1.12255536E-1,2.7119964E-1,7.49416E-2,-2.904603E-1,1.5850745E-1,-2.8514406E-1,-2.2695397E-1,-3.469485E-1,3.4584108E-1,-3.3590376E-1,4.221844E-2,3.3302748E-1,5.4526422E-2,-1.4858575E-1,-8.961749E-2,-3.1955558E-1],"split_indices":[1,1,7,7,0,7,6,7,0,1,0,6,6,6,0,1,0,1,1,6,1,7,0,0,0,7,7,8,0,0,0,0,0,0,1,0,3,2,0,7,0,7,1,0,1,0,6,0,0,9,0,4,1,0,0,0,0,0,0,0,0,0,0,0,0,0,0,0,0,0,0,0,0,0,0,0,0,0,0,0,0,0,0],"split_type":[0,0,0,0,1,0,0,0,1,0,1,0,0,0,1,0,0,0,0,0,0,0,0,1,0,0,0,0,1,0,0,1,0,0,0,1,0,0,0,0,0,0,0,0,0,1,0,0,1,0,0,0,0,0,0,0,0,0,0,0,0,0,0,0,0,0,0,0,0,0,0,0,0,0,0,0,0,0,0,0,0,0,0],"sum_hessian":[4.1531223E4,4.1169758E4,3.6146515E2,4.017953E4,9.9022833E2,2.4885277E2,1.1261239E2,3.6093188E4,4.0863433E3,8.1605705E1,9.086226E2,4.9807724E1,1.9904504E2,6.421144E1,4.8400944E1,5.218334E3,3.0874854E4,8.6215656E2,3.2241868E3,2.3871447E1,5.773426E1,1.1030098E2,7.983216E2,2.8127186E1,2.168054E1,1.3601439E2,6.303066E1,1.3564679E1,5.0646763E1,4.6342472E1,2.0584714E0,1.3150865E3,3.9032473E3,2.7932095E2,5.8283563E2,3.2113625E3,1.2824102E1,2.2435728E1,1.4357175E0,1.7327883E1,4.040638E1,8.026331E1,3.0037666E1,9.4842615E0,1.8642925E1,1.3918572E1,1.2209582E2,4.253732E1,2.0493338E1,1.2369333E1,1.1953464E0,2.5861792E1,2.4784973E1,2.947456E1,1.2856119E3,3.8509473E2,1.9774086E2,1.4851787E3,1.726184E3,6.62369E0,6.200412E0,6.8518295E0,1.5583899E1,1.0093164E1,7.2347183E0,5.189102E0,7.507421E1,2.427808E1,5.759588E0,1.6039139E1,2.6037848E0,3.1386871E0,1.0779885E1,1.1582626E1,1.1051319E2,1.2232198E1,8.26114E0,3.2963462E0,9.072988E0,2.0014582E1,5.8472095E0,1.1914857E1,1.2870116E1],"tree_param":{"num_deleted":"0","num_feature":"10","num_nodes":"83","size_leaf_vector":"0"}},{"base_weights":[-1.1383466E0,-1.1453125E0,-3.9676324E-1,-1.1498591E0,-9.621184E-1,-7.54399E-1,3.388332E-1,-1.1543486E0,-1.110246E0,4.6079877E-1,-1.0963529E0,-2.419167E-1,-8.903082E-1,-9.9867806E-2,1.0238258E0,-1.1349899E0,-3.472743E-1,-1.0700918E0,-1.1456612E0,-7.1755E-1,9.632027E-1,-4.3404305E-1,-1.1240793E0,3.4287345E-1,-3.3105853E-1,-9.7175264E-1,-6.940063E-1,5.3835773E-1,-2.77448E-1,3.396507E-1,-2.406136E-1,-1.0681112E0,-1.1567225E0,-9.90448E-1,-1.1365019E0,-1.1494257E0,-6.649205E-1,-9.2393374E-1,3.5450375E-1,5.801995E-1,3.3850354E-1,-3.1263146E-1,3.4929705E-1,-8.776063E-1,-3.4429264E-1,3.1271526E-1,1.643996E-2,-5.0066787E-1,-1.025201E0,-3.3895075E-1,2.0626968E-1,6.930261E-1,-1.7952667E-1,2.438733E-1,-4.784374E-1,2.812127E-1,-3.4585917E-1,-2.9637152E-1,-3.4779733E-1,-3.26107E-1,-1.7126061E-1,-2.465198E-1,-3.442754E-1,-3.4803092E-1,-3.1570026E-1,-5.0468754E-2,-3.1261352E-1,-1.5165794E-1,-3.2366353E-1,7.897641E-2,3.2101625E-1,3.0033454E-1,-1.2462543E-1,-3.4296003E-1,1.0424326E-1,2.1434216E-1,-8.219202E-2,1.22293055E-1,-2.4644165E-1,-1.9206335E-1,-3.1841746E-1,3.1966814E-1,-3.0837408E-1,3.281647E-2,2.654912E-1,1.5458316E-1,-3.4419107E-1,-4.998952E-2,-2.3224556E-1],"categories":[0,1,5,6,7,8,9,10,11,12,13,0,1,6,8,11,12,0,1,5,7,8,9,10,11,12,13,13,1,5,7,8,9,10,11,12,13,0,1,2,3,4,5,6,7,8,9,10,13,0,1,4,8,9,11,12,0,2,3,4,8,9,11,12,4,5,7,10,13,0,1,11,12,8,13,9,12,13],"categories_nodes":[4,8,10,14,22,23,31,32,34,36,47,50,54],"categories_segments":[0,11,17,27,28,37,49,56,64,69,73,74,75],"categories_sizes":[11,6,10,1,9,12,7,8,5,4,1,1,3],"default_left":[0,0,0,0,1,0,0,0,1,0,1,0,0,0,1,0,0,0,0,0,0,0,1,1,0,0,0,0,0,0,0,1,1,0,1,0,1,0,0,0,0,0,0,0,0,0,0,1,0,0,1,0,0,0,1,0,0,0,0,0,0,0,0,0,0,0,0,0,0,0,0,0,0,0,0,0,0,0,0,0,0,0,0,0,0,0,0,0,0],"id":4,"left_children":[1,3,5,7,9,11,13,15,17,19,21,23,25,27,29,31,-1,33,35,37,39,41,43,45,-1,47,49,51,53,-1,-1,55,57,59,61,63,65,67,-1,69,-1,-1,71,73,-1,-1,75,77,79,-1,81,83,-1,85,87,-1,-1,-1,-1,-1,-1,-1,-1,-1,-1,-1,-1,-1,-1,-1,-1,-1,-1,-1,-1,-1,-1,-1,-1,-1,-1,-1,-1,-1,-1,-1,-1,-1,-1],"loss_changes":[1.6709766E2,2.5660156E1,8.006343E1,4.2929688E0,1.503067E2,1.4023598E1,3.0132376E1,4.453125E-1,3.3493652E0,4.113307E1,1.2678162E1,2.266129E1,1.9029617E0,7.156766E0,8.6434555E0,4.689453E0,0E0,6.9295654E0,2.303955E0,9.320424E0,2.4015884E0,1.4862068E1,2.9857178E0,6.1725836E0,0E0,2.2925873E0,2.0153692E1,2.8408408E0,5.2540283E0,0E0,0E0,1.7323682E2,2.0117188E-1,2.7754883E1,1.930542E0,5.217285E-1,2.7365556E0,7.1855927E-1,0E0,2.2980728E0,0E0,0E0,7.4195023E0,2.1300144E1,0E0,0E0,4.1483855E0,4.2131886E0,7.0162964E-1,0E0,1.9555424E1,1.3157744E0,0E0,5.9924674E0,3.1649952E0,0E0,0E0,0E0,0E0,0E0,0E0,0E0,0E0,0E0,0E0,0E0,0E0,0E0,0E0,0E0,0E0,0E0,0E0,0E0,0E0,0E0,0E0,0E0,0E0,0E0,0E0,0E0,0E0,0E0,0E0,0E0,0E0,0E0,0E0],"parents":[2147483647,0,0,1,1,2,2,3,3,4,4,5,5,6,6,7,7,8,8,9,9,10,10,11,11,12,12,13,13,14,14,15,15,17,17,18,18,19,19,20,20,21,21,22,22,23,23,25,25,26,26,27,27,28,28,31,31,32,32,33,33,34,34,35,35,36,36,37,37,39,39,42,42,43,43,46,46,47,47,48,48,50,50,51,51,53,53,54,54],"right_children":[2,4,6,8,10,12,14,16,18,20,22,24,26,28,30,32,-1,34,36,38,40,42,44,46,-1,48,50,52,54,-1,-1,56,58,60,62,64,66,68,-1,70,-1,-1,72,74,-1,-1,76,78,80,-1,82,84,-1,86,88,-1,-1,-1,-1,-1,-1,-1,-1,-1,-1,-1,-1,-1,-1,-1,-1,-1,-1,-1,-1,-1,-1,-1,-1,-1,-1,-1,-1,-1,-1,-1,-1,-1,-1],"split_conditions":[6.4258E2,2.4055E2,2.2E1,2.2E1,NaN,4E0,5.3E1,4E0,NaN,2.6384E2,NaN,5.3E1,5.3E1,3.1E1,NaN,2.259E1,-3.472743E-1,2.507E1,2.1682E2,5.3E1,2.9687E2,2.2E1,NaN,NaN,-3.3105853E-1,1.2E1,1.2E1,6E0,4E0,3.396507E-1,-2.406136E-1,NaN,NaN,1.715E1,NaN,1.0565E2,NaN,3.83847E1,3.5450375E-1,5.3E1,3.3850354E-1,-3.1263146E-1,4.8E1,4.2026E2,-3.4429264E-1,3.1271526E-1,3.7543896E1,NaN,3.1E1,-3.3895075E-1,NaN,5E0,-1.7952667E-1,5.1E1,NaN,2.812127E-1,-3.4585917E-1,-2.9637152E-1,-3.4779733E-1,-3.26107E-1,-1.7126061E-1,-2.465198E-1,-3.442754E-1,-3.4803092E-1,-3.1570026E-1,-5.0468754E-2,-3.1261352E-1,-1.5165794E-1,-3.2366353E-1,7.897641E-2,3.2101625E-1,3.0033454E-1,-1.2462543E-1,-3.4296003E-1,1.0424326E-1,2.1434216E-1,-8.219202E-2,1.22293055E-1,-2.4644165E-1,-1.9206335E-1,-3.1841746E-1,3.1966814E-1,-3.0837408E-1,3.281647E-2,2.654912E-1,1.5458316E-1,-3.4419107E-1,-4.998952E-2,-2.3224556E-1],"split_indices":[1,1,7,7,0,7,6,7,0,1,0,6,6,6,0,1,0,1,1,6,1,7,0,0,0,7,7,8,9,0,0,0,0,1,0,1,0,2,0,6,0,0,6,1,0,0,4,0,6,0,0,9,0,6,0,0,0,0,0,0,0,0,0,0,0,0,0,0,0,0,0,0,0,0,0,0,0,0,0,0,0,0,0,0,0,0,0,0,0],"split_type":[0,0,0,0,1,0,0,0,1,0,1,0,0,0,1,0,0,0,0,0,0,0,1,1,0,0,0,0,0,0,0,1,1,0,1,0,1,0,0,0,0,0,0,0,0,0,0,1,0,0,1,0,0,0,1,0,0,0,0,0,0,0,0,0,0,0,0,0,0,0,0,0,0,0,0,0,0,0,0,0,0,0,0,0,0,0,0,0,0],"sum_hessian":[3.243365E4,3.2131287E4,3.0236453E2,3.1348004E4,7.8328235E2,2.0343295E2,9.8931564E1,2.8131643E4,3.2163606E3,6.731325E1,7.159691E2,4.3224255E1,1.602087E2,6.0828426E1,3.8103138E1,4.0755332E3,2.405611E4,1.5219635E3,1.6943971E3,1.9993006E1,4.7320244E1,2.9437702E1,6.8653143E2,2.6107033E1,1.7117222E1,1.1043826E2,4.9770443E1,1.279857E1,4.8029858E1,3.6327477E1,1.7756612E0,1.01186066E3,3.0636726E3,6.992662E2,8.226974E2,1.6798517E3,1.4545293E1,1.849656E1,1.4964464E0,1.5616138E1,3.1704103E1,1.6387045E1,1.3050655E1,6.3242584E1,6.232888E2,7.6088533E0,1.8498178E1,1.230972E1,9.812854E1,3.336381E1,1.640663E1,1.1609378E1,1.1891923E0,1.33053665E1,3.472449E1,4.061983E1,9.712408E2,5.2278225E1,3.0113943E3,5.6713666E2,1.321295E2,3.0536722E1,7.921607E2,1.5035554E3,1.7629626E2,6.901614E0,7.643679E0,6.1505203E0,1.2346038E1,1.0414915E1,5.2012234E0,6.8785076E0,6.172148E0,5.2029594E1,1.121299E1,5.005889E0,1.349229E1,3.1422358E0,9.167484E0,1.0037801E1,8.809074E1,9.752885E0,6.6537457E0,3.261664E0,8.347713E0,1.1660196E1,1.6451697E0,1.7663416E1,1.7061075E1],"tree_param":{"num_deleted":"0","num_feature":"10","num_nodes":"89","size_leaf_vector":"0"}},{"base_weights":[-1.0880033E0,-1.0955603E0,-3.495937E-1,-1.1004221E0,-9.031904E-1,-6.8078715E-1,2.791974E-1,-1.1063626E0,-1.0487335E0,1.6313687E-1,-1.0674279E0,-1.997945E-1,-8.198867E-1,-8.1900366E-2,9.6448326E-1,-1.0842971E0,-3.3301732E-1,-9.980759E-1,-1.0944173E0,7.958117E-1,-2.2707988E-1,-1.089617E0,-6.918387E-1,3.0005914E-1,-3.086915E-1,-6.687216E-1,-9.241575E-1,-1.6691169E-1,3.1569034E-1,3.2337764E-1,-2.1733469E-1,-1.008907E0,-1.1086816E0,-9.0088665E-1,-1.0801473E0,-1.0991788E0,-5.689531E-1,-1.584253E-1,3.06422E-1,-7.1157473E-1,5.4661363E-1,-8.93234E-1,-3.32121E-1,-8.614191E-1,1.0844954E0,7.8478146E-1,-8.414839E-2,-8.908766E-1,-4.5435038E-1,-2.0913616E-1,-9.4431853E-1,-7.302363E-2,-3.2767624E-1,4.0125194E-1,-3.2485813E-1,-2.7208933E-1,-3.3358324E-1,-3.0329773E-1,-1.1934946E-1,-2.1582563E-1,-3.281738E-1,-3.3378848E-1,-2.9405862E-1,-3.824671E-2,-2.9123995E-1,1.10887274E-1,-1.9807778E-1,-3.065437E-1,-1.1655726E-1,3.2187325E-1,7.285508E-2,-3.3337528E-1,1.9047752E-2,-6.258295E-2,-2.9725114E-1,-1.683602E-1,6.2165904E-1,-6.408755E-2,2.7172822E-1,2.4662003E-1,-1.279426E-1,-2.7463016E-1,-8.2239985E-2,-2.3295252E-1,2.835551E-1,-1.9026838E-1,1.0018338E-1,-1.7850937E-1,-2.9382527E-1,-3.019083E-1,4.634138E-3],"categories":[0,1,5,7,8,9,10,11,12,13,0,1,6,8,11,12,9,12,13,13,1,5,7,8,9,10,11,12,13,8,9,13,0,1,3,4,8,9,11,12,0,2,3,4,8,9,11,12,4,5,7,10,13,0,1,11,12,0,1,2,3,5,6,7,8,9,10,11,12,13],"categories_nodes":[4,8,12,14,21,23,27,31,32,34,36,40],"categories_segments":[0,10,16,19,20,29,30,32,40,48,53,57],"categories_sizes":[10,6,3,1,9,1,2,8,8,5,4,13],"default_left":[0,0,0,0,1,0,0,0,1,0,0,0,1,0,1,0,0,0,0,0,0,1,0,1,0,0,0,1,0,0,0,1,1,0,1,0,1,0,0,0,1,0,0,0,0,0,0,0,0,0,0,0,0,0,0,0,0,0,0,0,0,0,0,0,0,0,0,0,0,0,0,0,0,0,0,0,0,0,0,0,0,0,0,0,0,0,0,0,0,0,0],"id":5,"left_children":[1,3,5,7,9,11,13,15,17,19,21,23,25,27,29,31,-1,33,35,37,39,41,43,45,-1,47,49,51,-1,-1,-1,53,55,57,59,61,63,65,-1,67,69,71,-1,73,75,77,79,81,83,85,87,89,-1,-1,-1,-1,-1,-1,-1,-1,-1,-1,-1,-1,-1,-1,-1,-1,-1,-1,-1,-1,-1,-1,-1,-1,-1,-1,-1,-1,-1,-1,-1,-1,-1,-1,-1,-1,-1,-1,-1],"loss_changes":[1.389668E2,2.2121094E1,5.317942E1,6.2382812E0,1.07861755E2,1.100647E1,2.1977215E1,5.5859375E-1,4.702881E0,2.065569E1,3.6878662E0,1.6379185E1,1.4181747E0,5.8525615E0,6.6469383E0,4.6569824E0,0E0,8.588379E0,2.6428223E0,7.02042E0,1.9909115E1,7.2998047E-1,1.0715001E1,4.715368E0,0E0,2.27886E0,8.668175E-1,4.7537165E0,0E0,0E0,0E0,1.3660974E2,5.46875E-1,3.0329681E1,2.4151611E0,9.7924805E-1,2.324985E0,2.087794E0,0E0,2.8558655E0,3.0356498E0,9.687935E0,0E0,2.344513E0,6.481876E0,1.5384998E0,4.951053E0,1.5240669E-1,1.4584082E1,9.757428E-1,2.940483E-1,4.2747955E0,0E0,0E0,0E0,0E0,0E0,0E0,0E0,0E0,0E0,0E0,0E0,0E0,0E0,0E0,0E0,0E0,0E0,0E0,0E0,0E0,0E0,0E0,0E0,0E0,0E0,0E0,0E0,0E0,0E0,0E0,0E0,0E0,0E0,0E0,0E0,0E0,0E0,0E0,0E0],"parents":[2147483647,0,0,1,1,2,2,3,3,4,4,5,5,6,6,7,7,8,8,9,9,10,10,11,11,12,12,13,13,14,14,15,15,17,17,18,18,19,19,20,20,21,21,22,22,23,23,25,25,26,26,27,27,31,31,32,32,33,33,34,34,35,35,36,36,37,37,39,39,40,40,41,41,43,43,44,44,45,45,46,46,47,47,48,48,49,49,50,50,51,51],"right_children":[2,4,6,8,10,12,14,16,18,20,22,24,26,28,30,32,-1,34,36,38,40,42,44,46,-1,48,50,52,-1,-1,-1,54,56,58,60,62,64,66,-1,68,70,72,-1,74,76,78,80,82,84,86,88,90,-1,-1,-1,-1,-1,-1,-1,-1,-1,-1,-1,-1,-1,-1,-1,-1,-1,-1,-1,-1,-1,-1,-1,-1,-1,-1,-1,-1,-1,-1,-1,-1,-1,-1,-1,-1,-1,-1,-1],"split_conditions":[6.4258E2,2.4055E2,2.2E1,2.2E1,NaN,4E0,5.3E1,4E0,NaN,4E0,2.3E1,5.2E1,NaN,4.873208E1,NaN,2.131E1,-3.3301732E-1,2.445E1,2.1682E2,2.6384E2,2.2E1,NaN,6.3E1,NaN,-3.086915E-1,1.3E1,2.8E1,NaN,3.1569034E-1,3.2337764E-1,-2.1733469E-1,NaN,NaN,1.774E1,NaN,1.0565E2,NaN,3.87897E1,3.06422E-1,2.6384E2,NaN,4.2026E2,-3.32121E-1,4E0,5.0306E2,3.38155E1,3.7543896E1,4.72271E1,5.3E1,3.83847E1,3E0,-1.221884E2,-3.2767624E-1,4.0125194E-1,-3.2485813E-1,-2.7208933E-1,-3.3358324E-1,-3.0329773E-1,-1.1934946E-1,-2.1582563E-1,-3.281738E-1,-3.3378848E-1,-2.9405862E-1,-3.824671E-2,-2.9123995E-1,1.10887274E-1,-1.9807778E-1,-3.065437E-1,-1.1655726E-1,3.2187325E-1,7.285508E-2,-3.3337528E-1,1.9047752E-2,-6.258295E-2,-2.9725114E-1,-1.683602E-1,6.2165904E-1,-6.408755E-2,2.7172822E-1,2.4662003E-1,-1.279426E-1,-2.7463016E-1,-8.2239985E-2,-2.3295252E-1,2.835551E-1,-1.9026838E-1,1.0018338E-1,-1.7850937E-1,-2.9382527E-1,-3.019083E-1,4.634138E-3],"split_indices":[1,1,7,7,0,7,6,7,0,7,7,6,0,4,0,1,0,1,1,1,7,0,6,0,0,7,6,0,0,0,0,0,0,1,0,1,0,2,0,1,0,1,0,9,1,2,4,2,6,2,9,3,0,0,0,0,0,0,0,0,0,0,0,0,0,0,0,0,0,0,0,0,0,0,0,0,0,0,0,0,0,0,0,0,0,0,0,0,0,0,0],"split_type":[0,0,0,0,1,0,0,0,1,0,0,0,1,0,1,0,0,0,0,0,0,1,0,1,0,0,0,1,0,0,0,1,1,0,1,0,1,0,0,0,1,0,0,0,0,0,0,0,0,0,0,0,0,0,0,0,0,0,0,0,0,0,0,0,0,0,0,0,0,0,0,0,0,0,0,0,0,0,0,0,0,0,0,0,0,0,0,0,0,0,0],"sum_hessian":[2.4971184E4,2.4717734E4,2.5344884E2,2.4103838E4,6.138976E2,1.6595515E2,8.749368E1,2.1600871E4,2.502967E3,8.193483E1,5.319627E2,3.777371E1,1.2818144E2,5.787702E1,2.9616661E1,3.14064E3,1.846023E4,1.1977092E3,1.3052578E3,3.0860306E1,5.1074524E1,5.0049335E2,3.1469376E1,2.3964994E1,1.3808715E1,5.5350784E1,7.283066E1,5.463484E1,3.2421849E0,2.8091578E1,1.5250833E0,7.779157E2,2.362724E3,5.538339E2,6.438753E2,1.2924543E3,1.2803487E1,5.957712E0,2.4902594E1,3.1456455E1,1.9618069E1,4.5108265E1,4.553851E2,2.919709E1,2.2722857E0,1.01354065E1,1.3829587E1,2.5632166E1,2.9718618E1,2.3091428E0,7.0521515E1,5.058159E1,4.0532475E0,2.3246864E1,7.546689E2,4.2045795E1,2.3206785E3,4.5355316E2,1.0028077E2,2.5624683E1,6.182506E2,1.1536942E3,1.3876006E2,6.7286873E0,6.074799E0,3.031403E0,2.9263089E0,1.4943063E1,1.6513391E1,6.252681E0,1.3365387E1,3.660523E1,8.503038E0,5.2627363E0,2.3934353E1,1.0142184E0,1.2580673E0,1.0126337E0,9.122773E0,3.407575E0,1.0422012E1,2.418488E1,1.447286E0,2.4519625E1,5.1989937E0,1.2011328E0,1.1080099E0,8.078753E0,6.244276E1,3.4811833E0,4.7100407E1],"tree_param":{"num_deleted":"0","num_feature":"10","num_nodes":"91","size_leaf_vector":"0"}},{"base_weights":[-1.0509115E0,-1.0596247E0,-2.9825118E-1,-1.0651128E0,-8.486204E-1,-5.964455E-1,2.2475378E-1,-1.0730453E0,-9.973783E-1,1.3898918E-1,-1.0218524E0,-1.6498639E-1,-7.3006064E-1,-6.5439895E-2,9.154215E-1,-1.0482994E0,-3.2315853E-1,-9.451124E-1,-1.0709925E0,7.1260756E-1,-1.8131365E-1,-6.7872727E-1,-1.0603309E0,2.3463154E-1,-2.9791632E-1,-2.514004E-1,-7.6654774E-1,-3.0433688E-1,2.336325E-1,3.1082767E-1,-1.9749975E-1,-9.6761143E-1,-1.0759147E0,-8.5759175E-1,-1.0182767E0,-3.2367063E-1,-4.401836E-1,-1.347807E-1,2.8645548E-1,-5.915295E-1,4.3188128E-1,-9.9517703E-1,2.363081E-1,-3.2041678E-1,-6.088167E-1,2.7788803E-1,-4.0230935E-4,-7.2783494E-1,4.202216E-1,-8.4956044E-1,-5.767874E-1,5.1441723E-1,-5.011121E-1,-2.9817333E-2,1.0829915E0,2.9261628E-1,-3.126606E-1,-2.4684073E-1,-3.240686E-1,-2.925277E-1,-1.294931E-1,-1.861771E-1,-3.095111E-1,7.000989E-3,-2.7642882E-1,-2.3460034E-1,7.685161E-2,-2.8642857E-1,-8.580643E-2,1.5715547E-2,2.6087162E-1,-3.1933135E-1,-1.12671696E-1,4.5157668E-1,-4.390657E-2,-2.7796525E-1,1.4894217E-1,3.1675413E-1,-5.2461933E-2,4.7214944E-2,-2.8597665E-1,-1.0792045E-1,-2.7655357E-1,-3.116143E-1,8.2047634E-2,-8.099122E-2,2.1506895E-1,-7.949276E-2,-2.6472515E-1,2.8451827E-1,-7.317707E-2,3.8633147E-1,3.1891193E-3],"categories":[0,1,5,7,8,9,10,11,12,13,0,6,8,11,12,1,5,7,8,9,10,11,12,13,13,0,1,2,3,4,5,6,7,8,9,10,13,0,1,3,4,8,9,11,12,0,2,3,4,8,9,11,12,1,4,5,7,10,13,0,1,2,3,4,5,7,8,9,10,11,12,9,11,12],"categories_nodes":[4,8,10,14,23,31,32,34,36,47],"categories_segments":[0,10,15,24,25,37,45,53,59,71],"categories_sizes":[10,5,9,1,12,8,8,6,12,3],"default_left":[0,0,0,0,1,0,0,0,1,0,1,0,0,0,1,0,0,0,0,0,0,0,0,1,0,0,0,0,0,0,0,1,1,0,1,0,1,0,0,0,0,0,0,0,0,0,0,1,0,0,0,0,0,0,0,0,0,0,0,0,0,0,0,0,0,0,0,0,0,0,0,0,0,0,0,0,0,0,0,0,0,0,0,0,0,0,0,0,0,0,0,0,0],"id":6,"left_children":[1,3,5,7,9,11,13,15,17,19,21,23,25,27,29,31,-1,33,35,37,39,41,43,45,-1,47,49,51,53,-1,-1,55,57,59,61,-1,63,65,-1,67,69,71,73,-1,75,-1,77,79,-1,81,83,85,87,89,91,-1,-1,-1,-1,-1,-1,-1,-1,-1,-1,-1,-1,-1,-1,-1,-1,-1,-1,-1,-1,-1,-1,-1,-1,-1,-1,-1,-1,-1,-1,-1,-1,-1,-1,-1,-1,-1,-1],"loss_changes":[1.2467383E2,2.0914062E1,3.436812E1,8.794922E0,8.269711E1,7.954788E0,1.6181223E1,5.566406E-1,6.44751E0,1.3521225E1,4.7020874E0,1.1620791E1,1.6701164E0,4.1844E0,5.213974E0,4.297119E0,0E0,6.4415283E0,3.5041504E0,5.531497E0,1.222113E1,1.3029728E1,6.314087E-1,3.9052553E0,0E0,8.137322E0,1.0634804E0,5.4841375E0,5.879527E0,0E0,0E0,9.098633E1,1.050293E0,2.5928864E1,2.6536865E0,0E0,2.6012795E0,1.9026449E0,0E0,2.9366179E0,3.2175615E0,1.0174026E0,6.1260953E0,0E0,3.447533E0,0E0,3.672765E0,1.68189E0,0E0,2.022644E0,1.3295282E1,1.2702202E0,2.1666856E0,4.6124506E0,1.350718E0,0E0,0E0,0E0,0E0,0E0,0E0,0E0,0E0,0E0,0E0,0E0,0E0,0E0,0E0,0E0,0E0,0E0,0E0,0E0,0E0,0E0,0E0,0E0,0E0,0E0,0E0,0E0,0E0,0E0,0E0,0E0,0E0,0E0,0E0,0E0,0E0,0E0,0E0],"parents":[2147483647,0,0,1,1,2,2,3,3,4,4,5,5,6,6,7,7,8,8,9,9,10,10,11,11,12,12,13,13,14,14,15,15,17,17,18,18,19,19,20,20,21,21,22,22,23,23,25,25,26,26,27,27,28,28,31,31,32,32,33,33,34,34,36,36,37,37,39,39,40,40,41,41,42,42,44,44,46,46,47,47,49,49,50,50,51,51,52,52,53,53,54,54],"right_children":[2,4,6,8,10,12,14,16,18,20,22,24,26,28,30,32,-1,34,36,38,40,42,44,46,-1,48,50,52,54,-1,-1,56,58,60,62,-1,64,66,-1,68,70,72,74,-1,76,-1,78,80,-1,82,84,86,88,90,92,-1,-1,-1,-1,-1,-1,-1,-1,-1,-1,-1,-1,-1,-1,-1,-1,-1,-1,-1,-1,-1,-1,-1,-1,-1,-1,-1,-1,-1,-1,-1,-1,-1,-1,-1,-1,-1,-1],"split_conditions":[6.4258E2,2.4055E2,2.2E1,2.2E1,NaN,4E0,5.3E1,4E0,NaN,4E0,NaN,5.3E1,3.1E1,3.97532E1,NaN,2.445E1,-3.2315853E-1,2.445E1,2.1682E2,2.6384E2,2.2E1,4.2026E2,9.1E1,NaN,-2.9791632E-1,4.3671448E1,5.3E1,-1.1842866E2,-1.006215E2,3.1082767E-1,-1.9749975E-1,NaN,NaN,1.715E1,NaN,-3.2367063E-1,NaN,3.45189E1,2.8645548E-1,2.6384E2,3.9810345E1,2.3E1,4E0,-3.2041678E-1,5.0306E2,2.7788803E-1,-1.230614E2,NaN,4.202216E-1,1.2E1,1.2E1,-1.2247181E2,4.2E1,2.8E1,4.1716244E1,2.9261628E-1,-3.126606E-1,-2.4684073E-1,-3.240686E-1,-2.925277E-1,-1.294931E-1,-1.861771E-1,-3.095111E-1,7.000989E-3,-2.7642882E-1,-2.3460034E-1,7.685161E-2,-2.8642857E-1,-8.580643E-2,1.5715547E-2,2.6087162E-1,-3.1933135E-1,-1.12671696E-1,4.5157668E-1,-4.390657E-2,-2.7796525E-1,1.4894217E-1,3.1675413E-1,-5.2461933E-2,4.7214944E-2,-2.8597665E-1,-1.0792045E-1,-2.7655357E-1,-3.116143E-1,8.2047634E-2,-8.099122E-2,2.1506895E-1,-7.949276E-2,-2.6472515E-1,2.8451827E-1,-7.317707E-2,3.8633147E-1,3.1891193E-3],"split_indices":[1,1,7,7,0,7,6,7,0,7,0,6,6,2,0,1,0,1,1,1,7,1,6,0,0,4,6,5,3,0,0,0,0,1,0,0,0,2,0,1,4,7,7,0,1,0,3,0,0,7,7,5,6,6,4,0,0,0,0,0,0,0,0,0,0,0,0,0,0,0,0,0,0,0,0,0,0,0,0,0,0,0,0,0,0,0,0,0,0,0,0,0,0],"split_type":[0,0,0,0,1,0,0,0,1,0,1,0,0,0,1,0,0,0,0,0,0,0,0,1,0,0,0,0,0,0,0,1,1,0,1,0,1,0,0,0,0,0,0,0,0,0,0,1,0,0,0,0,0,0,0,0,0,0,0,0,0,0,0,0,0,0,0,0,0,0,0,0,0,0,0,0,0,0,0,0,0,0,0,0,0,0,0,0,0,0,0,0,0],"sum_hessian":[1.90584E4,1.8839893E4,2.1850949E2,1.8358355E4,4.8153668E2,1.3907478E2,7.943471E1,1.6420504E4,1.9378517E3,7.188903E1,4.0964764E2,3.3413475E1,1.056613E2,5.6570904E1,2.2863806E1,2.394655E3,1.4025849E4,1.1413417E3,7.9651E2,2.5319855E1,4.656918E1,4.3185802E1,3.6646185E2,2.30206E1,1.0392875E1,8.042676E0,9.761863E1,3.143958E1,2.5131323E1,2.1552841E1,1.310964E0,6.1978314E2,1.774872E3,5.254767E2,6.15865E2,7.8594495E2,1.0565021E1,5.727663E0,1.9592192E1,2.792393E1,1.8645248E1,3.2023445E1,1.1162357E1,3.5895496E2,7.506899E0,5.092675E0,1.7927923E1,6.676736E0,1.3659405E0,6.54916E1,3.212703E1,5.779142E0,2.5660439E1,1.9918118E1,5.213206E0,2.2467014E1,5.9731616E2,3.2956417E1,1.7419155E3,4.1085144E2,1.1462525E2,2.1656197E1,5.9420874E2,5.8662996E0,4.698721E0,1.7802397E0,3.9474232E0,1.1785935E1,1.6137995E1,1.0586231E1,8.059018E0,2.8157957E1,3.865487E0,1.906522E0,9.255836E0,5.956358E0,1.5505408E0,1.8253723E0,1.610255E1,1.4164014E0,5.2603345E0,9.190481E0,5.6301117E1,2.0673973E1,1.1453056E1,1.1173387E0,4.6618032E0,1.6893486E1,8.7669525E0,2.9608757E0,1.6957241E1,4.2086415E0,1.0045644E0],"tree_param":{"num_deleted":"0","num_feature":"10","num_nodes":"93","size_leaf_vector":"0"}},{"base_weights":[-1.0216318E0,-1.0318924E0,-2.4893434E-1,-1.0382726E0,-7.9595315E-1,-5.186158E-1,1.9154198E-1,-1.0489042E0,-9.4969875E-1,3.9049685E-1,-9.399769E-1,-1.267557E-1,-6.4904076E-1,-3.9117612E-2,8.7120086E-1,-1.0206743E0,-3.1609464E-1,-8.843716E-1,-1.0452563E0,-4.4917467E-1,7.6589483E-1,-1.0314043E0,-4.5820338E-1,3.4989953E-1,-7.211834E-1,-4.3302226E-1,-7.592565E-1,3.5565645E-2,-2.859857E-1,3.0027318E-1,-1.8022743E-1,-9.2805815E-1,-1.0511857E0,-7.79711E-1,-9.7619385E-1,-3.1666017E-1,-3.7300295E-1,-6.974756E-1,3.0015886E-1,3.3995923E-1,3.0631164E-1,-8.2083803E-1,-3.146782E-1,1.0650804E-1,-9.917923E-1,7.762464E-1,4.913778E-2,-2.9665375E-1,-1.8836232E-1,-7.936739E-1,-2.671529E-1,-8.472926E-1,-3.6576033E-1,9.871505E-2,-2.969922E-1,2.772203E-1,-3.1250593E-1,-2.2498892E-1,-3.1703877E-1,-2.7601394E-1,-1.0259596E-1,-1.578987E-1,-2.9802263E-1,6.6093355E-2,-2.2307453E-1,-6.528055E-2,-2.8280708E-1,1.1886045E-2,2.7699137E-1,9.66075E-2,-3.0564106E-1,-5.844313E-2,5.1517177E-1,-3.0681768E-1,-1.0871774E-1,1.2904812E-1,3.087188E-1,2.2091876E-1,-9.5199235E-2,1.1172066E-1,-2.2332232E-1,-1.100917E-1,-2.7992222E-1,1.3251959E-1,-1.2658417E-1,-2.9794691E-2,-2.5872535E-1,-1.7315267E-1,1.2121322E-1,-3.2327984E-2,1.5688914E-1],"categories":[0,1,5,6,7,8,9,10,11,12,13,0,6,8,11,12,9,13,13,1,5,6,7,8,9,10,11,12,13,1,5,7,9,11,12,13,0,1,2,3,4,5,6,7,8,10,13,0,1,4,8,9,11,12,0,2,3,4,8,9,11,12,1,4,5,7,10,13],"categories_nodes":[4,8,13,14,21,22,23,31,32,34],"categories_segments":[0,11,16,18,19,29,36,47,54,62],"categories_sizes":[11,5,2,1,10,7,11,7,8,6],"default_left":[0,0,0,0,1,0,0,0,1,0,0,0,0,1,1,0,0,0,0,0,0,1,1,1,0,0,0,0,0,0,0,1,1,0,1,0,0,0,0,0,0,0,0,0,0,0,0,0,0,0,0,0,0,0,0,0,0,0,0,0,0,0,0,0,0,0,0,0,0,0,0,0,0,0,0,0,0,0,0,0,0,0,0,0,0,0,0,0,0,0,0],"id":7,"left_children":[1,3,5,7,9,11,13,15,17,19,21,23,25,27,29,31,-1,33,35,37,39,41,43,45,47,49,51,53,-1,-1,-1,55,57,59,61,-1,63,65,-1,67,-1,69,-1,71,73,75,77,-1,79,81,83,85,87,89,-1,-1,-1,-1,-1,-1,-1,-1,-1,-1,-1,-1,-1,-1,-1,-1,-1,-1,-1,-1,-1,-1,-1,-1,-1,-1,-1,-1,-1,-1,-1,-1,-1,-1,-1,-1,-1],"loss_changes":[1.1447266E2,2.0671875E1,2.2782825E1,1.2095703E1,6.535162E1,5.9848614E0,1.151685E1,5.859375E-1,8.44165E0,1.3543169E1,1.447821E1,9.003849E0,1.7860069E0,3.832872E0,4.1529922E0,4.1574707E0,0E0,7.8654175E0,3.7775269E0,5.581599E0,2.837782E0,1.8869019E-1,1.6961384E1,2.2462637E0,1.8206582E0,1.7223315E0,1.681591E0,3.4916067E0,0E0,0E0,0E0,9.748935E1,1.5036621E0,2.5759521E1,3.1493835E0,0E0,2.5026863E0,1.2272496E0,0E0,2.1495652E0,0E0,6.313366E0,0E0,1.3962945E1,1.9124031E-1,1.961875E-1,3.1334827E0,0E0,2.1295943E0,2.3333645E-1,2.782248E0,4.3723297E-1,2.2301013E0,4.4602656E0,0E0,0E0,0E0,0E0,0E0,0E0,0E0,0E0,0E0,0E0,0E0,0E0,0E0,0E0,0E0,0E0,0E0,0E0,0E0,0E0,0E0,0E0,0E0,0E0,0E0,0E0,0E0,0E0,0E0,0E0,0E0,0E0,0E0,0E0,0E0,0E0,0E0],"parents":[2147483647,0,0,1,1,2,2,3,3,4,4,5,5,6,6,7,7,8,8,9,9,10,10,11,11,12,12,13,13,14,14,15,15,17,17,18,18,19,19,20,20,21,21,22,22,23,23,24,24,25,25,26,26,27,27,31,31,32,32,33,33,34,34,36,36,37,37,39,39,41,41,43,43,44,44,45,45,46,46,48,48,49,49,50,50,51,51,52,52,53,53],"right_children":[2,4,6,8,10,12,14,16,18,20,22,24,26,28,30,32,-1,34,36,38,40,42,44,46,48,50,52,54,-1,-1,-1,56,58,60,62,-1,64,66,-1,68,-1,70,-1,72,74,76,78,-1,80,82,84,86,88,90,-1,-1,-1,-1,-1,-1,-1,-1,-1,-1,-1,-1,-1,-1,-1,-1,-1,-1,-1,-1,-1,-1,-1,-1,-1,-1,-1,-1,-1,-1,-1,-1,-1,-1,-1,-1,-1],"split_conditions":[6.4258E2,2.4055E2,2.2E1,2.2E1,NaN,4E0,5.3E1,4E0,NaN,2.6384E2,2.2E1,4.6E1,6E0,NaN,NaN,2.131E1,-3.1609464E-1,2.445E1,2.1682E2,5.3E1,2.9687E2,NaN,NaN,NaN,-1.06569E2,3.6380867E1,1.9E1,5.2E1,-2.859857E-1,3.0027318E-1,-1.8022743E-1,NaN,NaN,1.715E1,NaN,-3.1666017E-1,3.8E1,3.83847E1,3.0015886E-1,5.3E1,3.0631164E-1,4E0,-3.146782E-1,5.0306E2,5.4E1,3.9E1,3.3E1,-2.9665375E-1,5.2E1,-1.180231E2,3.84549E1,2.5E1,5.3E1,4.3E1,-2.969922E-1,2.772203E-1,-3.1250593E-1,-2.2498892E-1,-3.1703877E-1,-2.7601394E-1,-1.0259596E-1,-1.578987E-1,-2.9802263E-1,6.6093355E-2,-2.2307453E-1,-6.528055E-2,-2.8280708E-1,1.1886045E-2,2.7699137E-1,9.66075E-2,-3.0564106E-1,-5.844313E-2,5.1517177E-1,-3.0681768E-1,-1.0871774E-1,1.2904812E-1,3.087188E-1,2.2091876E-1,-9.5199235E-2,1.1172066E-1,-2.2332232E-1,-1.100917E-1,-2.7992222E-1,1.3251959E-1,-1.2658417E-1,-2.9794691E-2,-2.5872535E-1,-1.7315267E-1,1.2121322E-1,-3.2327984E-2,1.5688914E-1],"split_indices":[1,1,7,7,0,7,6,7,0,1,7,6,9,0,0,1,0,1,1,6,1,0,0,0,3,4,7,6,0,0,0,0,0,1,0,0,6,2,0,6,0,7,0,1,6,6,6,0,6,3,2,6,6,6,0,0,0,0,0,0,0,0,0,0,0,0,0,0,0,0,0,0,0,0,0,0,0,0,0,0,0,0,0,0,0,0,0,0,0,0,0],"split_type":[0,0,0,0,1,0,0,0,1,0,0,0,0,1,1,0,0,0,0,0,0,1,1,1,0,0,0,0,0,0,0,1,1,0,1,0,0,0,0,0,0,0,0,0,0,0,0,0,0,0,0,0,0,0,0,0,0,0,0,0,0,0,0,0,0,0,0,0,0,0,0,0,0,0,0,0,0,0,0,0,0,0,0,0,0,0,0,0,0,0,0],"sum_hessian":[1.4469922E4,1.4279965E4,1.8995729E2,1.3900664E4,3.793005E2,1.1771125E2,7.224605E1,1.2401285E4,1.499379E3,4.087401E1,3.384265E2,2.988726E1,8.782399E1,5.4643745E1,1.7602304E1,1.8154584E3,1.0585826E4,8.9664746E2,6.0273157E2,1.2567383E1,2.8306627E1,2.8348752E2,5.4938995E1,1.6815079E1,1.3072181E1,3.1335838E1,5.6488148E1,5.140527E1,3.2384753E0,1.6470896E1,1.1314077E0,4.5766037E2,1.3577981E3,4.234657E2,4.7318176E2,5.9309406E2,9.637519E0,1.1172649E1,1.3947333E0,1.1477907E1,1.682872E1,2.5454609E1,2.580329E2,2.7079952E1,2.7859041E1,6.3014627E0,1.0513617E1,8.131474E0,4.940708E0,8.679334E0,2.2656506E1,4.5218307E1,1.1269842E1,4.927483E1,2.130441E0,2.6042265E1,4.316181E2,2.7288265E1,1.3305098E3,3.198267E2,1.0363899E2,1.8603504E1,4.5457825E2,3.861142E0,5.776377E0,4.4167213E0,6.7559276E0,8.2818575E0,3.196049E0,3.665698E0,2.1788912E1,2.3552969E1,3.5269842E0,2.5958338E1,1.9007031E0,3.8004339E0,2.5010288E0,3.3053946E0,7.2082214E0,2.6243508E0,2.3163571E0,3.0317392E0,5.647594E0,3.7284226E0,1.8928082E1,1.0462278E0,4.4172077E1,9.037939E0,2.2319036E0,3.364591E1,1.56289215E1],"tree_param":{"num_deleted":"0","num_feature":"10","num_nodes":"91","size_leaf_vector":"0"}},{"base_weights":[-9.9654496E-1,-1.0090685E0,-2.0521261E-1,-1.0259502E0,-8.7535185E-1,-4.334539E-1,1.4472283E-1,-1.0305781E0,-8.469377E-1,-9.044366E-1,-2.9875976E-1,-9.764662E-2,-5.5007434E-1,-3.8547363E-2,8.284005E-1,-9.9756426E-1,-3.108455E-1,2.5231355E-1,-1.0052996E0,-8.206188E-1,-1.0345955E0,2.1403827E-1,-2.9133713E-1,1.7733762E-1,-2.718473E-1,-4.5524463E-1,-8.7017924E-1,1.6170593E-1,-3.1976846E-1,2.9037943E-1,-1.3653584E-1,-8.946564E-1,-1.0339231E0,-1.2628098E-1,3.128466E-1,-7.47233E-1,-3.0863318E-1,-6.993363E-1,-9.341269E-1,-3.1152326E-1,-3.535063E-1,4.175173E-2,1.555787E0,2.523114E-1,1.771355E-3,-6.3776445E-1,-2.5193754E-1,-3.0910894E-1,-2.9936516E-1,3.5994586E-1,-2.6031774E-1,1.0259561E-1,-7.77143E-1,1.2996551E-1,-3.0603144E-1,-1.9833131E-1,-3.124583E-1,3.7034923E-1,-1.08564205E-1,7.181381E-2,-2.906384E-1,-2.5900033E-1,-7.9530045E-2,-2.4461946E-1,-3.104713E-1,-2.2708295E-1,1.2904763E-1,8.988494E-2,-1.5434441E-1,5.836973E-1,1.937392E-1,5.0122578E-2,-2.3369724E-1,-2.7698976E-1,-1.5824218E-1,-1.5725762E-1,2.8113845E-1,1.05106E-1,-2.2870702E-1,-4.9175523E-2,1.828436E-1,1.4835723E-1,-1.9862042E-1,-7.1599334E-2,2.0489733E-1,-3.1864816E-1,-4.5245014E-2],"categories":[0,1,5,6,7,8,9,10,11,12,13,0,6,8,11,12,1,5,7,9,10,11,12,13,9,13,9,12,13,0,1,2,3,4,5,6,7,9,10,13,1,5,6,7,8,9,10,11,12,13,0,1,2,3,4,5,6,7,8,9,10,13,0,1,4,8,9,11,12,0,2,3,4,8,9,11,12,5,7,0,8],"categories_nodes":[8,9,10,12,13,14,18,23,31,32,38,41],"categories_segments":[0,11,16,24,26,29,40,50,62,69,77,79],"categories_sizes":[11,5,8,2,3,11,10,12,7,8,2,2],"default_left":[0,0,0,0,0,0,0,0,1,1,1,0,1,1,1,0,0,0,1,0,0,0,0,1,0,0,0,0,0,0,0,1,1,0,0,0,0,0,1,0,0,1,0,0,0,0,0,0,0,0,0,0,0,0,0,0,0,0,0,0,0,0,0,0,0,0,0,0,0,0,0,0,0,0,0,0,0,0,0,0,0,0,0,0,0,0,0],"id":8,"left_children":[1,3,5,7,9,11,13,15,17,19,21,23,25,27,29,31,-1,33,35,37,39,41,-1,43,-1,45,47,49,51,-1,-1,53,55,57,-1,59,-1,61,63,-1,65,67,69,-1,71,73,75,77,-1,79,81,83,85,-1,-1,-1,-1,-1,-1,-1,-1,-1,-1,-1,-1,-1,-1,-1,-1,-1,-1,-1,-1,-1,-1,-1,-1,-1,-1,-1,-1,-1,-1,-1,-1,-1,-1],"loss_changes":[1.0840918E2,2.3457031E1,1.3800674E1,7.0585938E0,2.0125854E1,4.0330067E0,8.63365E0,6.8359375E-1,4.3230865E1,1.1776978E1,2.0859425E1,6.411392E0,1.948492E0,3.1543124E0,3.047533E0,4.2165527E0,0E0,9.675042E0,5.399475E-1,9.104736E0,8.0096436E-1,7.9795556E0,0E0,2.540556E0,0E0,2.128273E0,8.777504E-1,2.8414283E0,4.57115E0,0E0,0E0,6.143976E1,2.171997E0,7.6452236E0,0E0,4.967923E0,0E0,2.4457657E1,3.5014648E0,0E0,1.5966098E0,4.724986E0,1.3862896E-1,0E0,2.4860957E0,5.160208E-1,1.0472876E1,1.6176021E0,0E0,3.0759096E0,3.6866577E0,2.7321284E0,1.8532734E0,0E0,0E0,0E0,0E0,0E0,0E0,0E0,0E0,0E0,0E0,0E0,0E0,0E0,0E0,0E0,0E0,0E0,0E0,0E0,0E0,0E0,0E0,0E0,0E0,0E0,0E0,0E0,0E0,0E0,0E0,0E0,0E0,0E0,0E0],"parents":[2147483647,0,0,1,1,2,2,3,3,4,4,5,5,6,6,7,7,8,8,9,9,10,10,11,11,12,12,13,13,14,14,15,15,17,17,18,18,19,19,20,20,21,21,23,23,25,25,26,26,27,27,28,28,31,31,32,32,33,33,35,35,37,37,38,38,40,40,41,41,42,42,44,44,45,45,46,46,47,47,49,49,50,50,51,51,52,52],"right_children":[2,4,6,8,10,12,14,16,18,20,22,24,26,28,30,32,-1,34,36,38,40,42,-1,44,-1,46,48,50,52,-1,-1,54,56,58,-1,60,-1,62,64,-1,66,68,70,-1,72,74,76,78,-1,80,82,84,86,-1,-1,-1,-1,-1,-1,-1,-1,-1,-1,-1,-1,-1,-1,-1,-1,-1,-1,-1,-1,-1,-1,-1,-1,-1,-1,-1,-1,-1,-1,-1,-1,-1,-1],"split_conditions":[6.4258E2,2.2E1,2.2E1,2.4055E2,2.2678E2,4E0,5.3E1,4E0,NaN,NaN,NaN,5.3E1,NaN,NaN,NaN,2.445E1,-3.108455E-1,5.3E1,NaN,2.445E1,2.1682E2,5.0306E2,-2.9133713E-1,NaN,-2.718473E-1,1.5E1,1.1E1,-1.054781E2,9.2742E2,2.9037943E-1,-1.3653584E-1,NaN,NaN,3.1E1,3.128466E-1,4E0,-3.0863318E-1,1.715E1,NaN,-3.1152326E-1,3.97532E1,NaN,3.97795E1,2.523114E-1,9.2742E2,3.616793E1,5.3E1,5E0,-2.9936516E-1,3.5964043E1,4E0,-1.044414E2,4.1612503E1,1.2996551E-1,-3.0603144E-1,-1.9833131E-1,-3.124583E-1,3.7034923E-1,-1.08564205E-1,7.181381E-2,-2.906384E-1,-2.5900033E-1,-7.9530045E-2,-2.4461946E-1,-3.104713E-1,-2.2708295E-1,1.2904763E-1,8.988494E-2,-1.5434441E-1,5.836973E-1,1.937392E-1,5.0122578E-2,-2.3369724E-1,-2.7698976E-1,-1.5824218E-1,-1.5725762E-1,2.8113845E-1,1.05106E-1,-2.2870702E-1,-4.9175523E-2,1.828436E-1,1.4835723E-1,-1.9862042E-1,-7.1599334E-2,2.0489733E-1,-3.1864816E-1,-4.5245014E-2],"split_indices":[1,7,7,1,1,7,6,7,0,0,0,6,0,0,0,1,0,6,0,1,1,1,0,0,0,7,7,3,1,0,0,0,0,6,0,7,0,1,0,0,2,0,2,0,1,4,6,9,0,4,9,3,4,0,0,0,0,0,0,0,0,0,0,0,0,0,0,0,0,0,0,0,0,0,0,0,0,0,0,0,0,0,0,0,0,0,0],"split_type":[0,0,0,0,0,0,0,0,1,1,1,0,1,1,1,0,0,0,1,0,0,0,0,1,0,0,0,0,0,0,0,1,1,0,0,0,0,0,1,0,0,1,0,0,0,0,0,0,0,0,0,0,0,0,0,0,0,0,0,0,0,0,0,0,0,0,0,0,0,0,0,0,0,0,0,0,0,0,0,0,0,0,0,0,0,0,0],"sum_hessian":[1.0958951E4,1.0787947E4,1.7100441E2,9.572725E3,1.2152228E3,1.0335418E2,6.765022E1,9.326842E3,2.4588278E2,1.1563262E3,5.889661E1,2.711478E1,7.62394E1,5.4093307E1,1.3556916E1,1.3731503E3,7.9536914E3,3.0887476E1,2.149953E2,7.078197E2,4.4850647E2,3.3799835E1,2.5096773E1,2.0815754E1,6.299025E0,6.068415E1,1.555525E1,3.184322E1,2.2250088E1,1.2449422E1,1.1074942E0,3.6517822E2,1.0079721E3,2.1453232E1,9.434243E0,2.0665668E1,1.9432964E2,3.4565323E2,3.6216647E2,4.4548633E2,3.020137E0,3.0867437E1,2.9324E0,3.5615292E0,1.7254225E1,3.0850782E1,2.9833368E1,3.5182636E0,1.2036986E1,2.176602E1,1.0077199E1,1.1971058E1,1.0279029E1,3.1309782E1,3.3386844E2,2.1906681E1,9.860654E2,2.5404236E0,1.8912807E1,3.7750363E0,1.6890633E1,2.5017963E2,9.54736E1,1.7044777E2,1.917187E2,2.016253E0,1.0038842E0,2.1405422E1,9.462016E0,1.2561235E0,1.6762764E0,1.4888107E1,2.366118E0,6.542128E0,2.4308655E1,2.4730179E1,5.1031914E0,1.5255902E0,1.9926733E0,7.1334E0,1.463262E1,3.4201722E0,6.6570272E0,7.909332E0,4.0617266E0,6.586089E0,3.6929395E0],"tree_param":{"num_deleted":"0","num_feature":"10","num_nodes":"87","size_leaf_vector":"0"}},{"base_weights":[-9.730199E-1,-9.8798054E-1,-1.7238083E-1,-1.0101641E0,-8.2024765E-1,-3.7012511E-1,1.1425686E-1,-1.0157056E0,-8.030314E-1,-8.5330564E-1,-2.449757E-1,2.2996512E-1,-4.2612875E-1,-3.3841804E-2,7.8256446E-1,-9.75468E-1,-3.067669E-1,2.2724897E-1,-9.810841E-1,-7.526157E-1,-1.0202979E0,1.4015545E-1,-9.3169916E-1,-5.373444E-1,1.0616206E0,1.833955E-1,-4.8171824E-1,4.7789785E-1,-1.3111106E-1,2.8076E-1,-1.2084421E-1,-8.5445565E-1,-1.0195904E0,-1.53402E-1,2.8538847E-1,-6.740866E-1,-3.0358893E-1,-6.0859025E-1,-8.8322645E-1,-3.076226E-1,-3.0015013E-1,-4.7159788E-1,4.322315E-1,-2.9284313E-1,-1.0456602E-1,2.5833411E-2,-2.6302275E-1,4.700917E-1,4.0013826E-1,4.2090005E-1,-1.941098E-1,-3.28662E-1,-6.2102246E-1,6.256151E-2,2.7516967E-1,-3.6379147E-1,8.376318E-2,8.607732E-2,-3.0018547E-1,-1.7339432E-1,-3.08928E-1,-1.1342393E-1,2.74728E-1,-2.919672E-1,2.313086E-2,-2.3754086E-1,-1.6796513E-2,-2.241196E-1,-3.0132866E-1,-2.0829703E-1,1.03358716E-1,2.4183662E-1,-2.1743974E-1,2.4509348E-1,-1.3676833E-2,2.4299854E-1,-4.5393344E-2,-6.519337E-2,2.3139143E-1,-1.2896876E-2,-1.3565458E-1,-1.2252117E-1,-2.4789703E-1,7.877619E-2,-1.1901714E-1,-1.4921243E-1,2.69066E-1,7.484568E-2,-1.8723784E-1],"categories":[0,1,5,6,7,8,9,10,11,12,13,0,6,8,11,12,5,7,9,10,11,12,13,0,1,2,3,4,5,6,7,9,10,13,1,5,6,7,8,9,10,11,12,13,0,1,2,3,4,5,6,7,9,10,11,12,13,9,12,13,0,1,8,9,11,12,0,2,3,4,8,9,11,12,5,7,0,1,2,3,5,6,7,8],"categories_nodes":[8,9,10,14,18,24,26,31,32,38,41],"categories_segments":[0,11,16,23,34,44,57,60,66,74,76],"categories_sizes":[11,5,7,11,10,13,3,6,8,2,8],"default_left":[0,0,0,0,0,0,0,0,1,1,1,0,0,0,1,0,0,0,1,0,0,0,0,0,1,0,1,0,0,0,0,1,1,0,0,0,0,0,1,0,0,1,0,0,0,0,0,0,0,0,0,0,0,0,0,0,0,0,0,0,0,0,0,0,0,0,0,0,0,0,0,0,0,0,0,0,0,0,0,0,0,0,0,0,0,0,0,0,0],"id":9,"left_children":[1,3,5,7,9,11,13,15,17,19,21,23,25,27,29,31,-1,33,35,37,39,41,43,45,47,49,51,53,55,-1,-1,57,59,61,-1,63,-1,65,67,-1,69,71,73,-1,-1,-1,-1,-1,75,77,-1,79,81,83,-1,85,87,-1,-1,-1,-1,-1,-1,-1,-1,-1,-1,-1,-1,-1,-1,-1,-1,-1,-1,-1,-1,-1,-1,-1,-1,-1,-1,-1,-1,-1,-1,-1,-1],"loss_changes":[9.921631E1,2.9478027E1,8.737806E0,7.436035E0,1.798523E1,3.1568823E0,6.3008294E0,9.321289E-1,3.546248E1,1.4437744E1,1.4251799E1,5.942789E0,2.9209738E0,2.6934378E0,2.4742465E0,4.680969E0,0E0,8.171259E0,8.72345E-1,1.0146698E1,9.338989E-1,6.471386E0,1.6037369E-1,1.1425363E0,8.358264E-1,1.7932694E0,1.4352608E0,1.522206E0,2.2900968E0,0E0,0E0,4.7668533E1,2.803833E0,5.137635E0,0E0,4.11563E0,0E0,2.7628464E1,4.128601E0,0E0,1.2026042E0,4.406205E0,4.4978776E0,0E0,0E0,0E0,0E0,0E0,8.544392E-1,1.644106E0,0E0,1.348258E0,1.370511E0,6.1157113E-1,0E0,4.1317616E0,3.0075324E0,0E0,0E0,0E0,0E0,0E0,0E0,0E0,0E0,0E0,0E0,0E0,0E0,0E0,0E0,0E0,0E0,0E0,0E0,0E0,0E0,0E0,0E0,0E0,0E0,0E0,0E0,0E0,0E0,0E0,0E0,0E0,0E0],"parents":[2147483647,0,0,1,1,2,2,3,3,4,4,5,5,6,6,7,7,8,8,9,9,10,10,11,11,12,12,13,13,14,14,15,15,17,17,18,18,19,19,20,20,21,21,22,22,23,23,24,24,25,25,26,26,27,27,28,28,31,31,32,32,33,33,35,35,37,37,38,38,40,40,41,41,42,42,48,48,49,49,51,51,52,52,53,53,55,55,56,56],"right_children":[2,4,6,8,10,12,14,16,18,20,22,24,26,28,30,32,-1,34,36,38,40,42,44,46,48,50,52,54,56,-1,-1,58,60,62,-1,64,-1,66,68,-1,70,72,74,-1,-1,-1,-1,-1,76,78,-1,80,82,84,-1,86,88,-1,-1,-1,-1,-1,-1,-1,-1,-1,-1,-1,-1,-1,-1,-1,-1,-1,-1,-1,-1,-1,-1,-1,-1,-1,-1,-1,-1,-1,-1,-1,-1],"split_conditions":[6.4258E2,2.2E1,2.2E1,2.4055E2,2.2678E2,3.1E1,5.3E1,4E0,NaN,NaN,NaN,4.0306686E1,1E0,2.8E1,NaN,2.445E1,-3.067669E-1,2.9687E2,NaN,2.324E1,2.1682E2,3.7736916E1,5.4E1,9.2742E2,NaN,1E1,NaN,3.86171E1,2.3E1,2.8076E-1,-1.2084421E-1,NaN,NaN,5.3E1,2.8538847E-1,4.2026E2,-3.0358893E-1,1.774E1,NaN,-3.076226E-1,3.97532E1,NaN,8E0,-2.9284313E-1,-1.0456602E-1,2.5833411E-2,-2.6302275E-1,4.700917E-1,-1.189017E2,5E0,-1.941098E-1,3.8031223E1,9.2742E2,3.815084E1,2.7516967E-1,-9.33014E1,-9.52138E1,8.607732E-2,-3.0018547E-1,-1.7339432E-1,-3.08928E-1,-1.1342393E-1,2.74728E-1,-2.919672E-1,2.313086E-2,-2.3754086E-1,-1.6796513E-2,-2.241196E-1,-3.0132866E-1,-2.0829703E-1,1.03358716E-1,2.4183662E-1,-2.1743974E-1,2.4509348E-1,-1.3676833E-2,2.4299854E-1,-4.5393344E-2,-6.519337E-2,2.3139143E-1,-1.2896876E-2,-1.3565458E-1,-1.2252117E-1,-2.4789703E-1,7.877619E-2,-1.1901714E-1,-1.4921243E-1,2.69066E-1,7.484568E-2,-1.8723784E-1],"split_indices":[1,7,7,1,1,6,6,7,0,0,0,4,7,6,0,1,0,1,0,1,1,4,6,1,0,9,0,2,7,0,0,0,0,6,0,1,0,1,0,0,2,0,9,0,0,0,0,0,3,9,0,4,1,4,0,3,3,0,0,0,0,0,0,0,0,0,0,0,0,0,0,0,0,0,0,0,0,0,0,0,0,0,0,0,0,0,0,0,0],"split_type":[0,0,0,0,0,0,0,0,1,1,1,0,0,0,1,0,0,0,1,0,0,0,0,0,1,0,1,0,0,0,0,1,1,0,0,0,0,0,1,0,0,1,0,0,0,0,0,0,0,0,0,0,0,0,0,0,0,0,0,0,0,0,0,0,0,0,0,0,0,0,0,0,0,0,0,0,0,0,0,0,0,0,0,0,0,0,0,0,0],"sum_hessian":[8.296419E3,8.1440073E3,1.5241164E2,7.188293E3,9.5571454E2,9.001869E1,6.239294E1,6.9971934E3,1.9109946E2,9.033219E2,5.2392654E1,7.418775E0,8.2599915E1,5.185181E1,1.0541131E1,1.0388616E3,5.9583315E3,2.8118553E1,1.629809E2,5.669685E2,3.3635342E2,3.407723E1,1.8315428E1,4.042725E0,3.3760502E0,6.711453E0,7.588846E1,7.656634E0,4.4195175E1,9.520375E0,1.0207556E0,2.8301523E2,7.558464E2,1.8946163E1,9.17239E0,1.6981453E1,1.4599945E2,2.7232892E2,2.9463956E2,3.335623E2,2.7911515E0,1.0813568E1,2.326366E1,1.6392166E1,1.9232624E0,1.6880857E0,2.3546393E0,1.1378717E0,2.2381785E0,5.6023264E0,1.1091266E0,3.7760063E1,3.81284E1,4.52305E0,3.133584E0,2.088569E1,2.3309486E1,3.2018723E1,2.5099649E2,1.8316177E1,7.375302E2,1.6190258E1,2.7559047E0,1.1933669E1,5.047784E0,2.0419586E2,6.813305E1,1.4213083E2,1.5250873E2,1.6843133E0,1.1068383E0,1.4273026E0,9.386265E0,1.24937525E1,1.0769907E1,1.0149693E0,1.2232091E0,2.1203125E0,3.482014E0,1.180528E1,2.5954784E1,2.0198868E1,1.7929531E1,3.4491584E0,1.0738914E0,1.9432106E1,1.4535844E0,1.9412445E1,3.8970404E0],"tree_param":{"num_deleted":"0","num_feature":"10","num_nodes":"89","size_leaf_vector":"0"}},{"base_weights":[-9.481463E-1,-9.6714216E-1,-1.2914154E-1,-9.9618036E-1,-7.602484E-1,-4.3253496E-2,-6.5979904E-1,-1.0027268E0,-7.604712E-1,-3.443464E-1,-8.134812E-1,-2.4982111E-1,1.5566602E-1,-1.2704365E-1,-2.992671E-1,-9.527126E-1,-3.0340445E-1,2.0826049E-1,-9.565378E-1,-9.0732414E-1,1.4138955E-1,-8.464998E-1,-2.929745E-1,-6.317133E-3,-4.1358456E-1,1.2667098E-2,2.8002474E-1,4.9272484E-1,-2.7353123E-1,-8.001859E-1,-1.0043969E0,-4.414181E-1,5.576176E-1,-6.475541E-1,-3.01354E-1,-9.5296E-1,2.8365139E-2,-4.0952903E-1,2.0567765E0,-7.3902035E-1,-3.0445802E-1,-4.0551472E-2,-8.7093997E-1,5.7613885E-1,-2.8921616E-1,-2.676048E-1,-2.3164457E-1,9.5269166E-2,-6.6636044E-1,-1.1561183E-1,2.6478478E-1,2.0381594E-1,-2.9404476E-1,-1.517226E-1,-3.0524933E-1,-5.1404787E-3,-2.2752105E-1,6.758772E-2,2.7377874E-1,9.1239296E-2,-2.6091945E-1,-2.7161544E-2,-2.930553E-1,1.5241353E-1,-2.649296E-1,8.613749E-2,2.2962954E0,-1.7469895E-1,-2.6380545E-1,-1.8381634E-1,6.7970455E-2,-2.8220582E-1,-3.7347853E-2,3.209688E-2,3.1126344E-1,-1.4091593E-1,8.077447E-2,-1.6533595E-1,7.5763635E-2,1.4471593E-1,-1.653557E-2,-2.9658186E-1,-2.5366042E-3],"categories":[9,13,0,1,5,6,7,10,11,12,0,1,5,6,7,8,9,10,11,12,13,1,5,7,8,9,10,11,12,13,0,6,11,12,1,5,7,10,11,12,0,1,4,8,9,11,12,0,2,3,4,8,9,11,12,0,1,2,3,5,6,7,8,9],"categories_nodes":[2,4,8,18,21,22,29,30,38],"categories_segments":[0,2,10,21,30,34,40,47,55],"categories_sizes":[2,8,11,9,4,6,7,8,9],"default_left":[0,0,1,0,1,0,0,0,1,0,0,0,0,0,0,0,0,0,1,0,0,1,1,0,0,0,0,0,0,1,1,0,0,0,0,0,0,0,1,0,0,0,0,0,0,0,0,0,0,0,0,0,0,0,0,0,0,0,0,0,0,0,0,0,0,0,0,0,0,0,0,0,0,0,0,0,0,0,0,0,0,0,0],"id":10,"left_children":[1,3,5,7,9,11,13,15,17,19,21,23,25,27,-1,29,-1,31,33,35,37,39,41,43,45,47,-1,49,-1,51,53,55,57,59,-1,61,-1,63,65,67,-1,69,71,73,75,-1,77,79,81,-1,-1,-1,-1,-1,-1,-1,-1,-1,-1,-1,-1,-1,-1,-1,-1,-1,-1,-1,-1,-1,-1,-1,-1,-1,-1,-1,-1,-1,-1,-1,-1,-1,-1],"loss_changes":[9.782471E1,3.6208496E1,6.528647E0,7.559082E0,1.6579803E1,5.171004E0,3.467023E0,1.2973633E0,2.8663094E1,2.4232218E1,1.1342224E1,2.4560146E0,7.1331334E0,4.7752953E0,0E0,5.4101562E0,0E0,6.1579638E0,1.1997147E0,1.9629021E0,5.168678E1,1.0715637E1,6.056725E0,4.4190497E0,3.0008283E0,3.1640599E0,0E0,2.2638714E0,0E0,5.509526E1,3.3059082E0,1.2870737E0,1.844707E0,4.4064884E0,0E0,7.206116E-1,0E0,1.7071548E1,1.0606381E2,8.072647E0,0E0,4.741173E0,5.411911E-1,1.7876446E0,1.944608E0,0E0,4.4776335E0,2.9467356E0,1.289207E0,0E0,0E0,0E0,0E0,0E0,0E0,0E0,0E0,0E0,0E0,0E0,0E0,0E0,0E0,0E0,0E0,0E0,0E0,0E0,0E0,0E0,0E0,0E0,0E0,0E0,0E0,0E0,0E0,0E0,0E0,0E0,0E0,0E0,0E0],"parents":[2147483647,0,0,1,1,2,2,3,3,4,4,5,5,6,6,7,7,8,8,9,9,10,10,11,11,12,12,13,13,15,15,17,17,18,18,19,19,20,20,21,21,22,22,23,23,24,24,25,25,27,27,29,29,30,30,31,31,32,32,33,33,35,35,37,37,38,38,39,39,41,41,42,42,43,43,44,44,46,46,47,47,48,48],"right_children":[2,4,6,8,10,12,14,16,18,20,22,24,26,28,-1,30,-1,32,34,36,38,40,42,44,46,48,-1,50,-1,52,54,56,58,60,-1,62,-1,64,66,68,-1,70,72,74,76,-1,78,80,82,-1,-1,-1,-1,-1,-1,-1,-1,-1,-1,-1,-1,-1,-1,-1,-1,-1,-1,-1,-1,-1,-1,-1,-1,-1,-1,-1,-1,-1,-1,-1,-1,-1,-1],"split_conditions":[6.4258E2,2.2E1,NaN,2.4055E2,NaN,2E1,1.1E1,4E0,NaN,7.24E0,2.1682E2,4.1E1,5.3E1,4.5E1,-2.992671E-1,1.955E1,-3.0340445E-1,2.6384E2,NaN,4.80816E1,5.3E1,NaN,NaN,3E0,4.9E1,5.1E1,2.8002474E-1,3.89829E1,-2.7353123E-1,NaN,NaN,4E0,2.9687E2,4E0,-3.01354E-1,-1.2437429E2,2.8365139E-2,1.274E1,NaN,2.507E1,-3.0445802E-1,3.7736916E1,5.0306E2,8E0,4.1927967E1,-2.676048E-1,1.2E1,4E0,-1.163381E2,-1.1561183E-1,2.6478478E-1,2.0381594E-1,-2.9404476E-1,-1.517226E-1,-3.0524933E-1,-5.1404787E-3,-2.2752105E-1,6.758772E-2,2.7377874E-1,9.1239296E-2,-2.6091945E-1,-2.7161544E-2,-2.930553E-1,1.5241353E-1,-2.649296E-1,8.613749E-2,2.2962954E0,-1.7469895E-1,-2.6380545E-1,-1.8381634E-1,6.7970455E-2,-2.8220582E-1,-3.7347853E-2,3.209688E-2,3.1126344E-1,-1.4091593E-1,8.077447E-2,-1.6533595E-1,7.5763635E-2,1.4471593E-1,-1.653557E-2,-2.9658186E-1,-2.5366042E-3],"split_indices":[1,7,0,1,0,7,7,7,0,1,1,6,6,6,0,1,0,1,0,4,6,0,0,7,6,6,0,2,0,0,0,7,1,7,0,5,0,1,0,1,0,4,1,9,4,0,7,9,3,0,0,0,0,0,0,0,0,0,0,0,0,0,0,0,0,0,0,0,0,0,0,0,0,0,0,0,0,0,0,0,0,0,0],"split_type":[0,0,1,0,1,0,0,0,1,0,0,0,0,0,0,0,0,0,1,0,0,1,1,0,0,0,0,0,0,1,1,0,0,0,0,0,0,0,1,0,0,0,0,0,0,0,0,0,0,0,0,0,0,0,0,0,0,0,0,0,0,0,0,0,0,0,0,0,0,0,0,0,0,0,0,0,0,0,0,0,0,0,0],"sum_hessian":[6.2948984E3,6.152029E3,1.4287007E2,5.3915E3,7.6052875E2,1.2389836E2,1.8971703E1,5.242639E3,1.4886049E2,8.714475E1,6.7338403E2,6.0655193E1,6.3243168E1,7.8949337E0,1.1076769E1,7.8723596E2,4.4554033E3,2.5046722E1,1.23813774E2,3.9961098E1,4.7183655E1,6.326268E2,4.0757267E1,2.4807247E1,3.5847946E1,5.42795E1,8.963671E0,4.619004E0,3.2759297E0,2.0341522E2,5.838208E2,8.666547E0,1.6380175E1,1.8589098E1,1.0522467E2,3.8266846E1,1.6942503E0,3.7254433E1,9.929221E0,3.8941666E2,2.432101E2,2.911265E1,1.1644616E1,7.7710366E0,1.703621E1,8.801258E0,2.7046688E1,4.9159107E1,5.12039E0,1.4238507E0,3.1951532E0,2.17578E1,1.8165742E2,1.5959532E1,5.6786127E2,4.156778E0,4.509769E0,9.304297E0,7.075878E0,3.448551E0,1.5140548E1,1.1606054E0,3.7106243E1,1.2657277E1,2.4597157E1,8.342919E0,1.5863024E0,1.8641719E2,2.0299947E2,8.853871E0,2.025878E1,1.041157E1,1.2330468E0,4.4639993E0,3.3070376E0,1.2994963E1,4.0412474E0,1.6211733E1,1.0834955E1,1.3136489E1,3.602262E1,3.0995529E0,2.0208368E0],"tree_param":{"num_deleted":"0","num_feature":"10","num_nodes":"83","size_leaf_vector":"0"}},{"base_weights":[-9.220317E-1,-9.57335E-1,-3.6499253E-1,-9.906028E-1,-7.2984135E-1,-2.3402557E-1,-8.95623E-1,-9.510619E-1,-3.0244344E-1,-5.689536E-1,-9.232453E-1,-4.1604906E-1,8.082161E-2,-4.3257326E-3,-9.2853093E-1,-8.333654E-1,-9.9978006E-1,-3.4836477E-1,-8.604327E-1,-3.0458388E-1,-3.208507E-1,2.3716853E-3,-5.851597E-1,7.059191E-1,-1.4252851E-2,-6.4219147E-1,-3.0117574E-1,1.4502231E0,-9.2853594E-1,-3.0329955E-1,-7.9864454E-1,-6.329733E-1,1.678174E-1,-2.5329378E-1,-9.15603E-1,1.5874068E0,-7.469718E-1,6.7617536E-1,-2.1139587E-1,-8.2903075E-1,-2.5234798E-1,-1.2502925E-1,3.0105472E-1,-3.4814957E-1,9.676438E-2,1.0740571E-1,-8.600346E-1,6.588648E-1,9.831662E-2,-1.02310196E-1,-2.90464E-1,-9.557313E-2,-2.7484524E-1,-7.992385E-2,-2.720357E-1,2.3389672E-1,-2.4183048E-1,-2.8029627E-1,5.354003E-1,-2.992952E-1,-2.0343114E-1,1.1807481E0,-2.351451E-1,-2.785889E-1,-5.5878725E-2,2.5262523E-1,-9.816602E-2,5.484045E-2,-1.3348927E-1,-7.156721E-2,-2.8317633E-1,-2.0406406E-1,-4.3091666E-2,1.3646354E-1,-1.5548566E-1,-2.1153818E-1,8.799301E-3,1.3222204E-1,-9.007806E-3,2.4254924E-1,-1.9438504E-1,-2.9672706E-1,-5.7725444E-2],"categories":[1,5,7,9,10,13,0,4,5,6,7,8,10,11,12,0,1,6,8,11,12,0,1,2,3,5,6,7,9,10,11,12,13,1,3,9,13,5,7,10,0,6,8,11,12,1,9,13,5,7,10,8,11,12,0,6,8,11,12],"categories_nodes":[2,3,4,12,15,18,20,28,31,38,39],"categories_segments":[0,6,15,21,33,37,40,45,48,51,54],"categories_sizes":[6,9,6,12,4,3,5,3,3,3,5],"default_left":[0,0,1,1,1,0,0,0,0,0,0,0,1,0,0,1,0,0,1,0,1,0,0,0,0,0,0,0,1,0,0,1,0,0,0,0,0,0,1,1,0,0,0,0,0,0,0,0,0,0,0,0,0,0,0,0,0,0,0,0,0,0,0,0,0,0,0,0,0,0,0,0,0,0,0,0,0,0,0,0,0,0,0],"id":11,"left_children":[1,3,5,7,9,11,13,15,-1,17,19,21,23,-1,25,27,29,31,33,-1,35,37,39,41,43,45,-1,47,49,-1,51,53,55,57,59,61,63,65,67,69,71,73,-1,75,77,79,81,-1,-1,-1,-1,-1,-1,-1,-1,-1,-1,-1,-1,-1,-1,-1,-1,-1,-1,-1,-1,-1,-1,-1,-1,-1,-1,-1,-1,-1,-1,-1,-1,-1,-1,-1,-1],"loss_changes":[9.386084E1,3.3368164E1,1.9745144E1,1.7648926E0,1.7475159E1,1.3309498E1,1.6246567E0,6.1879883E0,0E0,2.0172165E1,1.4149414E1,1.0399574E1,5.10332E0,0E0,5.304184E-1,8.055795E1,1.135315E0,2.6978611E1,4.3395767E0,0E0,3.0512032E1,6.378797E0,8.28516E0,2.9281454E0,2.8274133E0,2.398221E0,0E0,1.1817816E1,7.8401794E0,0E0,2.5425758E0,1.1613625E1,3.9838066E1,1.9364777E1,1.753952E0,4.152725E1,2.8992233E0,2.051E0,3.1775513E0,3.8426247E0,2.0277455E0,1.1201202E0,0E0,2.584132E0,2.5141468E0,2.6785028E0,7.619324E-1,0E0,0E0,0E0,0E0,0E0,0E0,0E0,0E0,0E0,0E0,0E0,0E0,0E0,0E0,0E0,0E0,0E0,0E0,0E0,0E0,0E0,0E0,0E0,0E0,0E0,0E0,0E0,0E0,0E0,0E0,0E0,0E0,0E0,0E0,0E0,0E0],"parents":[2147483647,0,0,1,1,2,2,3,3,4,4,5,5,6,6,7,7,9,9,10,10,11,11,12,12,14,14,15,15,16,16,17,17,18,18,20,20,21,21,22,22,23,23,24,24,25,25,27,27,28,28,30,30,31,31,32,32,33,33,34,34,35,35,36,36,37,37,38,38,39,39,40,40,41,41,43,43,44,44,45,45,46,46],"right_children":[2,4,6,8,10,12,14,16,-1,18,20,22,24,-1,26,28,30,32,34,-1,36,38,40,42,44,46,-1,48,50,-1,52,54,56,58,60,62,64,66,68,70,72,74,-1,76,78,80,82,-1,-1,-1,-1,-1,-1,-1,-1,-1,-1,-1,-1,-1,-1,-1,-1,-1,-1,-1,-1,-1,-1,-1,-1,-1,-1,-1,-1,-1,-1,-1,-1,-1,-1,-1,-1],"split_conditions":[2.4055E2,2.2E1,NaN,NaN,NaN,2.2E1,1E0,2.445E1,-3.0244344E-1,2.507E1,1.0565E2,4E0,NaN,-4.3257326E-3,1.1E1,NaN,1.1186E2,1.715E1,NaN,-3.0458388E-1,NaN,3.6E1,6.4258E2,4.5E1,3.6380867E1,3.8E1,-3.0117574E-1,1.432E1,NaN,-3.0329955E-1,5E0,NaN,5.4E1,5.5E1,6.2E1,1.3128E2,2.1682E2,6E0,NaN,NaN,3.458077E1,-1.120559E2,3.0105472E-1,3E0,4E0,4E0,-9.89041E1,6.588648E-1,9.831662E-2,-1.02310196E-1,-2.90464E-1,-9.557313E-2,-2.7484524E-1,-7.992385E-2,-2.720357E-1,2.3389672E-1,-2.4183048E-1,-2.8029627E-1,5.354003E-1,-2.992952E-1,-2.0343114E-1,1.1807481E0,-2.351451E-1,-2.785889E-1,-5.5878725E-2,2.5262523E-1,-9.816602E-2,5.484045E-2,-1.3348927E-1,-7.156721E-2,-2.8317633E-1,-2.0406406E-1,-4.3091666E-2,1.3646354E-1,-1.5548566E-1,-2.1153818E-1,8.799301E-3,1.3222204E-1,-9.007806E-3,2.4254924E-1,-1.9438504E-1,-2.9672706E-1,-5.7725444E-2],"split_indices":[1,7,0,0,0,7,7,1,0,1,1,7,0,0,7,0,1,1,0,0,0,6,1,6,4,6,0,1,0,0,7,0,6,6,6,1,1,8,0,0,4,3,0,8,9,9,3,0,0,0,0,0,0,0,0,0,0,0,0,0,0,0,0,0,0,0,0,0,0,0,0,0,0,0,0,0,0,0,0,0,0,0,0],"split_type":[0,0,1,1,1,0,0,0,0,0,0,0,1,0,0,1,0,0,1,0,1,0,0,0,0,0,0,0,1,0,0,1,0,0,0,0,0,0,1,1,0,0,0,0,0,0,0,0,0,0,0,0,0,0,0,0,0,0,0,0,0,0,0,0,0,0,0,0,0,0,0,0,0,0,0,0,0,0,0,0,0,0,0],"sum_hessian":[4.789695E3,4.503556E3,2.8613898E2,3.9260686E3,5.7748755E2,2.3065192E2,5.5487053E1,1.2234731E3,2.7025955E3,3.173959E2,2.6009164E2,1.4595128E2,8.470065E1,2.0493004E0,5.343775E1,3.6347433E2,8.599988E2,1.8191751E2,1.354784E2,2.2502657E2,3.506509E1,4.2293324E1,1.0365794E2,1.0333677E1,7.4366974E1,1.31207905E1,4.0316963E1,1.3972412E1,3.4950192E2,8.107524E2,4.9246357E1,1.1711648E2,6.480104E1,1.1751089E1,1.2372731E2,5.903365E0,2.9161726E1,9.665177E0,3.2628147E1,5.896199E1,4.4695957E1,2.877896E0,7.455781E0,1.8023447E1,5.634353E1,3.0686245E0,1.0052166E1,7.8193107E0,6.153102E0,2.2717646E1,3.267843E2,1.0413509E1,3.8832848E1,5.092059E1,6.619589E1,3.992113E1,2.4879908E1,9.213686E0,2.5374033E0,8.9579956E1,3.4147358E1,2.6344354E0,3.26893E0,2.1530224E1,7.6315007E0,8.431772E0,1.2334052E0,1.22205925E1,2.0407555E1,1.0104874E1,4.8857117E1,7.9902267E0,3.670573E1,1.0996385E0,1.7782576E0,8.817185E0,9.206262E0,1.4507985E1,4.183554E1,1.5549902E0,1.5136343E0,8.02026E0,2.0319054E0],"tree_param":{"num_deleted":"0","num_feature":"10","num_nodes":"83","size_leaf_vector":"0"}},{"base_weights":[-8.9233506E-1,-9.365506E-1,-3.0261388E-1,-9.7983766E-1,-6.669361E-1,-1.8679942E-1,-8.545643E-1,-9.401776E-1,-3.0157745E-1,-4.9728993E-1,-8.9218724E-1,-3.4385243E-1,6.240102E-2,-4.611627E-1,-2.9261354E-1,-8.083441E-1,-9.9329025E-1,-3.5074162E-1,-2.9989088E-1,-3.0257976E-1,-3.0877408E-1,3.747548E-3,-4.9899405E-1,-3.2669913E-2,5.4864573E-1,8.709741E-2,-2.7088645E-1,1.6853803E0,-8.840259E-1,-3.0214968E-1,-8.6781716E-1,-8.201717E-1,-1.8910526E-1,5.266499E-1,-6.7942435E-1,2.3202401E-1,-5.0737995E-1,-7.6448166E-1,-1.9398724E-1,5.4101974E-2,-6.8797565E-1,-4.191144E-1,1.0981499E0,-1.877974E-1,4.5674786E-1,8.015073E-1,1.1274495E-1,-5.963385E-2,-2.7773696E-1,-4.2394854E-2,-2.8167325E-1,-2.6030356E-1,2.1618944E-2,1.7442256E-1,-1.0029357E-1,2.959828E-1,-2.2092171E-1,-2.8440195E-1,-6.470311E-2,3.0602333E-1,3.1724533E-3,2.3574926E-1,-2.8225657E-1,-5.268446E-2,-2.7412003E-1,-2.209542E-1,-3.541033E-2,4.872113E-2,-1.4645606E-1,-2.9762864E-1,-2.0282272E-2,1.7525746E-1,-2.5252622E-1,1.332408E-1,3.5825843E-1,8.6196195E-3,2.9310358E-1],"categories":[1,5,7,9,10,13,0,4,5,6,8,10,11,12,0,1,6,8,11,12,1,3,7,9,13,0,2,3,4,5,6,7,8,11,12,1,7,9,13,0,1,2,3,4,5,7,10,1,2,3,4,5,6,7,8,9,10,13,0,8,11,12,0,6,8,11,12,0,6],"categories_nodes":[2,3,4,15,20,28,32,35,36,37,41],"categories_segments":[0,6,14,20,25,35,39,47,58,62,67],"categories_sizes":[6,8,6,5,10,4,8,11,4,5,2],"default_left":[0,0,1,1,1,0,0,0,0,0,0,0,0,0,0,1,0,0,0,0,1,0,0,0,0,0,0,0,1,0,0,0,1,0,0,1,1,1,0,0,0,1,0,0,0,0,0,0,0,0,0,0,0,0,0,0,0,0,0,0,0,0,0,0,0,0,0,0,0,0,0,0,0,0,0,0,0],"id":12,"left_children":[1,3,5,7,9,11,13,15,-1,17,19,21,23,25,-1,27,29,31,-1,-1,33,35,37,39,41,43,-1,45,47,-1,49,51,53,55,57,59,61,63,65,67,69,71,73,-1,75,-1,-1,-1,-1,-1,-1,-1,-1,-1,-1,-1,-1,-1,-1,-1,-1,-1,-1,-1,-1,-1,-1,-1,-1,-1,-1,-1,-1,-1,-1,-1,-1],"loss_changes":[9.534839E1,3.915918E1,1.6286898E1,2.0161133E0,1.7709595E1,8.394603E0,1.6577187E0,7.338623E0,0E0,1.9764221E1,1.346347E1,7.087224E0,3.880413E0,3.061549E0,0E0,6.552281E1,5.6134033E-1,1.601167E1,0E0,0E0,1.1251169E1,4.964253E0,7.208309E0,4.0649114E0,7.756867E0,1.974861E0,0E0,1.2348433E1,9.258636E0,0E0,4.4806976E0,2.3630257E0,1.8072525E1,7.3347254E0,2.8850842E0,5.1198874E0,8.10401E0,4.078575E0,1.7104183E0,3.8073504E0,1.5093143E0,2.9058042E0,3.6697388E-2,0E0,1.0403591E0,0E0,0E0,0E0,0E0,0E0,0E0,0E0,0E0,0E0,0E0,0E0,0E0,0E0,0E0,0E0,0E0,0E0,0E0,0E0,0E0,0E0,0E0,0E0,0E0,0E0,0E0,0E0,0E0,0E0,0E0,0E0,0E0],"parents":[2147483647,0,0,1,1,2,2,3,3,4,4,5,5,6,6,7,7,9,9,10,10,11,11,12,12,13,13,15,15,16,16,17,17,20,20,21,21,22,22,23,23,24,24,25,25,27,27,28,28,30,30,31,31,32,32,33,33,34,34,35,35,36,36,37,37,38,38,39,39,40,40,41,41,42,42,44,44],"right_children":[2,4,6,8,10,12,14,16,-1,18,20,22,24,26,-1,28,30,32,-1,-1,34,36,38,40,42,44,-1,46,48,-1,50,52,54,56,58,60,62,64,66,68,70,72,74,-1,76,-1,-1,-1,-1,-1,-1,-1,-1,-1,-1,-1,-1,-1,-1,-1,-1,-1,-1,-1,-1,-1,-1,-1,-1,-1,-1,-1,-1,-1,-1,-1,-1],"split_conditions":[2.4055E2,2.2E1,NaN,NaN,NaN,2.2E1,9E0,2.324E1,-3.0157745E-1,5.329E1,1.0565E2,4E0,5.3E1,4.5E1,-2.9261354E-1,NaN,1.0039E2,7.53E0,-2.9989088E-1,-3.0257976E-1,NaN,5.4E1,6.4258E2,5.1E1,3.4176E2,6.4258E2,-2.7088645E-1,1.432E1,NaN,-3.0214968E-1,3E0,4.80816E1,NaN,1.3128E2,1.8614E2,NaN,NaN,NaN,3.39056E1,6E0,-1.163381E2,NaN,3.77773E1,-1.877974E-1,3.9E1,8.015073E-1,1.1274495E-1,-5.963385E-2,-2.7773696E-1,-4.2394854E-2,-2.8167325E-1,-2.6030356E-1,2.1618944E-2,1.7442256E-1,-1.0029357E-1,2.959828E-1,-2.2092171E-1,-2.8440195E-1,-6.470311E-2,3.0602333E-1,3.1724533E-3,2.3574926E-1,-2.8225657E-1,-5.268446E-2,-2.7412003E-1,-2.209542E-1,-3.541033E-2,4.872113E-2,-1.4645606E-1,-2.9762864E-1,-2.0282272E-2,1.7525746E-1,-2.5252622E-1,1.332408E-1,3.5825843E-1,8.6196195E-3,2.9310358E-1],"split_indices":[1,7,0,0,0,7,7,1,0,1,1,7,6,6,0,0,1,1,0,0,0,6,1,6,1,1,0,1,0,0,7,4,0,1,1,0,0,0,2,8,3,0,2,0,6,0,0,0,0,0,0,0,0,0,0,0,0,0,0,0,0,0,0,0,0,0,0,0,0,0,0,0,0,0,0,0,0],"split_type":[0,0,1,1,1,0,0,0,0,0,0,0,0,0,0,1,0,0,0,0,1,0,0,0,0,0,0,0,1,0,0,0,1,0,0,1,1,1,0,0,0,1,0,0,0,0,0,0,0,0,0,0,0,0,0,0,0,0,0,0,0,0,0,0,0,0,0,0,0,0,0,0,0,0,0,0,0],"sum_hessian":[3.6665938E3,3.4103105E3,2.562832E2,2.9362556E3,4.7405496E2,2.1294077E2,4.3342426E1,1.1617374E3,1.7745182E3,2.722327E2,2.0182227E2,1.3038727E2,8.255349E1,1.1315007E1,3.202742E1,3.3828433E2,8.23453E2,2.1206552E2,6.016716E1,1.6764273E2,3.4179543E1,4.0537502E1,8.984977E1,6.983258E1,1.2720906E1,5.407367E0,5.9076405E0,9.337659E0,3.289467E2,7.351323E2,8.832071E1,5.3273254E1,1.5879227E2,1.0374699E1,2.3804844E1,2.8399815E1,1.2137688E1,4.7231518E1,4.2618256E1,6.2477154E1,7.3554316E0,4.6930385E0,8.027868E0,1.6093395E0,3.7980275E0,4.7328954E0,4.6047635E0,1.9227617E1,3.0971906E2,8.1387825E0,8.018192E1,5.0606262E1,2.6669927E0,2.4703487E1,1.3408878E2,7.765613E0,2.609086E0,1.441315E1,9.391693E0,5.4388027E0,2.2961012E1,2.8430364E0,9.294651E0,9.990606E0,3.724091E1,4.165724E0,3.8452534E1,5.2660683E1,9.816468E0,4.533697E0,2.8217347E0,1.2776873E0,3.4153514E0,1.7481508E0,6.279717E0,2.662688E0,1.1353396E0],"tree_param":{"num_deleted":"0","num_feature":"10","num_nodes":"77","size_leaf_vector":"0"}},{"base_weights":[-8.577648E-1,-9.1134983E-1,-2.514435E-1,-9.67912E-1,-5.946655E-1,-1.506511E-1,-8.121815E-1,-9.19322E-1,-2.9984096E-1,-4.586903E-1,-9.343682E-1,3.524784E-1,-2.0576034E-1,-4.2646557E-1,-2.9219395E-1,-7.6790583E-1,-9.848854E-1,-2.744751E-1,-6.8349487E-1,-2.9987928E-1,-1.652795E-1,-6.7780405E-2,7.425909E-1,-3.4355345E-1,1.4160998E-2,4.4833776E-2,-2.6245573E-1,1.4826828E0,-8.465599E-1,-3.0113715E-1,-8.2404196E-1,-5.557084E-1,2.0592591E-1,-4.5578274E-1,-9.333709E-1,4.549159E-1,-6.3387316E-1,-2.5033504E-1,2.6609161E-1,3.409709E-1,4.4132105E-1,-5.1927596E-1,-1.52244E-1,-2.3457688E-1,2.5261185E-1,-1.8800934E-1,3.7383106E-1,7.85199E-2,1.7084991E0,-8.8483706E-2,-2.7559856E-1,-1.1726101E-1,-2.9694304E-1,-4.5118585E-2,-2.6184475E-1,1.8012342E-1,-2.3024438E-1,-2.1294351E-1,-3.9820266E-3,-1.454778E-1,-2.9768288E-1,3.2536328E-1,-1.8526202E-1,5.0559152E-2,-2.6758227E-1,1.4338645E-1,-5.8208603E-2,-8.292129E-2,3.1301796E-1,-3.75482E-2,-2.8117758E-1,-2.660442E-2,-1.8228164E-1,1.683546E-1,-1.0036456E-1,2.0821892E-1,2.3445383E-2,-7.6225474E-2,1.977525E-1],"categories":[1,5,7,9,10,13,0,4,5,6,8,10,11,12,0,6,8,11,12,1,3,7,9,13,5,7,2,3,7,9,1,5,7,10,0,1,2,3,4,5,7,8,9,10,11,12,8,11,12],"categories_nodes":[2,3,4,15,18,30,31,35,41],"categories_segments":[0,6,14,19,24,26,30,34,46],"categories_sizes":[6,8,5,5,2,4,4,12,3],"default_left":[0,0,1,1,1,0,0,0,0,0,0,0,0,0,0,1,0,0,1,0,0,0,0,0,0,0,0,0,0,0,1,1,0,0,0,1,0,0,0,0,0,1,0,0,0,0,0,0,0,0,0,0,0,0,0,0,0,0,0,0,0,0,0,0,0,0,0,0,0,0,0,0,0,0,0,0,0,0,0],"id":13,"left_children":[1,3,5,7,9,11,13,15,-1,17,19,21,23,25,-1,27,29,31,33,-1,35,37,39,41,43,45,-1,47,49,-1,51,53,55,57,59,61,63,-1,65,-1,67,69,71,73,75,-1,77,-1,-1,-1,-1,-1,-1,-1,-1,-1,-1,-1,-1,-1,-1,-1,-1,-1,-1,-1,-1,-1,-1,-1,-1,-1,-1,-1,-1,-1,-1,-1,-1],"loss_changes":[9.1523926E1,4.5895752E1,1.2916241E1,2.4541016E0,1.785138E1,5.528544E0,1.7640457E0,7.965454E0,0E0,1.1597713E1,5.461647E0,3.295566E0,5.3983517E0,2.5960038E0,0E0,4.905136E1,1.0263062E0,2.1472271E1,6.829342E0,0E0,3.1850383E0,2.8957207E0,7.2676563E-1,3.6007614E0,4.182587E0,1.7476554E0,0E0,4.7270897E1,1.0130585E1,0E0,4.617569E0,1.2719143E1,2.315565E1,7.709015E0,1.0994797E0,3.9594889E0,1.4125123E0,0E0,8.7598276E-1,0E0,3.5289881E0,9.213256E0,1.503922E0,2.93586E0,2.7164218E0,0E0,1.1034632E0,0E0,0E0,0E0,0E0,0E0,0E0,0E0,0E0,0E0,0E0,0E0,0E0,0E0,0E0,0E0,0E0,0E0,0E0,0E0,0E0,0E0,0E0,0E0,0E0,0E0,0E0,0E0,0E0,0E0,0E0,0E0,0E0],"parents":[2147483647,0,0,1,1,2,2,3,3,4,4,5,5,6,6,7,7,9,9,10,10,11,11,12,12,13,13,15,15,16,16,17,17,18,18,20,20,21,21,22,22,23,23,24,24,25,25,27,27,28,28,30,30,31,31,32,32,33,33,34,34,35,35,36,36,38,38,40,40,41,41,42,42,43,43,44,44,46,46],"right_children":[2,4,6,8,10,12,14,16,-1,18,20,22,24,26,-1,28,30,32,34,-1,36,38,40,42,44,46,-1,48,50,-1,52,54,56,58,60,62,64,-1,66,-1,68,70,72,74,76,-1,78,-1,-1,-1,-1,-1,-1,-1,-1,-1,-1,-1,-1,-1,-1,-1,-1,-1,-1,-1,-1,-1,-1,-1,-1,-1,-1,-1,-1,-1,-1,-1,-1],"split_conditions":[2.4055E2,2.2E1,NaN,NaN,NaN,3.1E1,1.1E1,2.445E1,-2.9984096E-1,2.324E1,1.8614E2,4.0306686E1,2.2E1,4.5E1,-2.9219395E-1,NaN,1.0039E2,1.715E1,NaN,-2.9987928E-1,3.8E1,6E0,4.30048E1,6.4258E2,4.3E1,6.4258E2,-2.6245573E-1,4E0,4E0,-3.0113715E-1,NaN,NaN,5.6E1,5.4E1,2.63E1,NaN,1E0,-2.5033504E-1,9.2742E2,3.409709E-1,4.663259E1,NaN,4.5612057E1,2E0,4.8E1,-1.8800934E-1,3.89829E1,7.85199E-2,1.7084991E0,-8.8483706E-2,-2.7559856E-1,-1.1726101E-1,-2.9694304E-1,-4.5118585E-2,-2.6184475E-1,1.8012342E-1,-2.3024438E-1,-2.1294351E-1,-3.9820266E-3,-1.454778E-1,-2.9768288E-1,3.2536328E-1,-1.8526202E-1,5.0559152E-2,-2.6758227E-1,1.4338645E-1,-5.8208603E-2,-8.292129E-2,3.1301796E-1,-3.75482E-2,-2.8117758E-1,-2.660442E-2,-1.8228164E-1,1.683546E-1,-1.0036456E-1,2.0821892E-1,2.3445383E-2,-7.6225474E-2,1.977525E-1],"split_indices":[1,7,0,0,0,6,7,1,0,1,1,4,7,6,0,0,1,1,0,0,6,9,2,1,6,1,0,7,7,0,0,0,6,6,1,0,8,0,1,0,4,0,4,9,6,0,2,0,0,0,0,0,0,0,0,0,0,0,0,0,0,0,0,0,0,0,0,0,0,0,0,0,0,0,0,0,0,0,0],"split_type":[0,0,1,1,1,0,0,0,0,0,0,0,0,0,0,1,0,0,1,0,0,0,0,0,0,0,0,0,0,0,1,1,0,0,0,1,0,0,0,0,0,1,0,0,0,0,0,0,0,0,0,0,0,0,0,0,0,0,0,0,0,0,0,0,0,0,0,0,0,0,0,0,0,0,0,0,0,0,0],"sum_hessian":[2.8230613E3,2.5933638E3,2.2969762E2,2.1986177E3,3.9474603E2,1.957757E2,3.3921932E1,8.7755786E2,1.3210598E3,2.8358408E2,1.1116196E2,1.879426E1,1.7698143E2,1.10988455E1,2.2823086E1,2.6900766E2,6.085502E2,1.5708354E2,1.2650053E2,1.0219471E2,8.967253E0,9.445309E0,9.34895E0,1.0846182E2,6.851961E1,5.8499618E0,5.2488837E0,8.481089E0,2.6052658E2,5.3985614E2,6.869403E1,9.89816E1,5.8101936E1,6.766313E1,5.883739E1,3.871894E0,5.0953593E0,2.4105823E0,7.0347266E0,2.8497102E0,6.49924E0,5.5640408E1,5.2821415E1,3.3544357E1,3.497525E1,1.6260611E0,4.2239003E0,7.3986936E0,1.0823948E0,3.0705484E1,2.2982109E2,1.9941761E1,4.8752274E1,4.4095234E1,5.4886368E1,4.161865E1,1.6483292E1,4.260249E1,2.5060646E1,7.9031534E0,5.0934235E1,2.432516E0,1.4393777E0,1.3243967E0,3.7709625E0,4.790275E0,2.2444518E0,3.2116132E0,3.287627E0,2.9306648E1,2.633376E1,4.7399765E1,5.4216504E0,3.2289546E0,3.0315403E1,9.063312E0,2.5911942E1,1.3539666E0,2.8699338E0],"tree_param":{"num_deleted":"0","num_feature":"10","num_nodes":"79","size_leaf_vector":"0"}},{"base_weights":[-8.14753E-1,-8.8055384E-1,-2.0062676E-1,-9.528412E-1,-5.2269894E-1,-1.23703815E-1,-7.5842744E-1,-8.9153785E-1,-2.98106E-1,-3.8852963E-1,-9.1222703E-1,-3.1205416E-1,9.0226776E-4,-3.869175E-1,-2.85325E-1,-7.1246284E-1,-9.742579E-1,-2.265342E-1,-6.1068135E-1,-2.9816577E-1,-1.5017058E-1,9.332721E-2,-7.775555E-1,-9.312301E-2,2.894096E-1,2.1193232E-2,-2.4889688E-1,2.5412473E-1,-8.630374E-1,-2.998351E-1,-7.729418E-1,-7.040638E-1,2.1299917E-2,-3.778809E-1,-9.0531176E-1,2.1691188E-1,-2.2767052E-1,-5.0578497E-2,5.519047E-1,-4.2865407E-1,-2.8963563E-1,5.7678324E-1,-1.2266653E-1,4.3226805E-1,-3.552214E-1,-1.7422873E-1,2.9545987E-1,5.3878796E-1,-1.7626552E-1,-2.7211964E-1,-1.24685735E-1,-1.39445225E-2,-2.7605116E-1,-7.617189E-2,-2.702308E-1,7.290689E-2,-1.7499056E-1,-2.4647322E-1,-4.673803E-2,-1.2264799E-1,-2.9486942E-1,2.2398274E-1,-1.106754E-1,2.1509549E-1,-5.7371907E-2,2.4484558E-1,-2.1922017E-2,-2.8555092E-1,8.801483E-2,3.8183514E-2,2.1093304E-1,-7.567391E-2,2.2480475E-2,5.7834674E-2,2.3484531E-1,1.03483714E-1,-1.8572192E-1,-1.9759888E-2,2.1842103E-1],"categories":[5,7,9,13,0,4,5,6,8,10,11,12,0,6,8,11,12,0,8,11,12,1,7,9,13,5,7,0,1,2,3,4,5,7,8,9,10,11,12,8,11,12,1,5,10,13],"categories_nodes":[2,3,4,11,15,18,20,22,31],"categories_segments":[0,4,12,17,21,25,27,39,42],"categories_sizes":[4,8,5,4,4,2,12,3,4],"default_left":[0,0,1,1,1,0,0,0,0,0,0,1,0,0,0,1,0,0,1,0,1,0,1,0,0,0,0,0,0,0,0,1,0,0,0,0,0,0,0,0,0,0,0,0,0,0,0,0,0,0,0,0,0,0,0,0,0,0,0,0,0,0,0,0,0,0,0,0,0,0,0,0,0,0,0,0,0,0,0],"id":14,"left_children":[1,3,5,7,9,11,13,15,-1,17,19,21,23,25,-1,27,29,31,33,-1,35,37,39,41,43,45,-1,47,49,-1,51,53,55,57,59,61,-1,63,65,67,-1,69,71,73,75,-1,77,-1,-1,-1,-1,-1,-1,-1,-1,-1,-1,-1,-1,-1,-1,-1,-1,-1,-1,-1,-1,-1,-1,-1,-1,-1,-1,-1,-1,-1,-1,-1,-1],"loss_changes":[8.890454E1,5.1000854E1,9.115556E0,3.2581787E0,1.7246567E1,4.45518E0,1.4797993E0,9.252991E0,0E0,8.939148E0,5.173767E0,1.4334844E1,3.1529613E0,1.9151348E0,0E0,3.1642174E1,1.5432434E0,1.7466541E1,6.913368E0,0E0,2.2778077E0,2.7528102E0,1.8995533E0,1.805825E0,2.7844176E0,1.2347709E0,0E0,3.9821167E1,3.307251E0,0E0,5.8608513E0,4.2351646E0,1.3285465E1,5.863864E0,1.3690796E0,2.3474321E0,0E0,3.629265E0,1.7023017E0,5.6247115E0,0E0,1.307379E-1,2.189957E0,1.850214E0,1.2723783E0,0E0,8.43097E-1,0E0,0E0,0E0,0E0,0E0,0E0,0E0,0E0,0E0,0E0,0E0,0E0,0E0,0E0,0E0,0E0,0E0,0E0,0E0,0E0,0E0,0E0,0E0,0E0,0E0,0E0,0E0,0E0,0E0,0E0,0E0,0E0],"parents":[2147483647,0,0,1,1,2,2,3,3,4,4,5,5,6,6,7,7,9,9,10,10,11,11,12,12,13,13,15,15,16,16,17,17,18,18,20,20,21,21,22,22,23,23,24,24,25,25,27,27,28,28,30,30,31,31,32,32,33,33,34,34,35,35,37,37,38,38,39,39,41,41,42,42,43,43,44,44,46,46],"right_children":[2,4,6,8,10,12,14,16,-1,18,20,22,24,26,-1,28,30,32,34,-1,36,38,40,42,44,46,-1,48,50,-1,52,54,56,58,60,62,-1,64,66,68,-1,70,72,74,76,-1,78,-1,-1,-1,-1,-1,-1,-1,-1,-1,-1,-1,-1,-1,-1,-1,-1,-1,-1,-1,-1,-1,-1,-1,-1,-1,-1,-1,-1,-1,-1,-1,-1],"split_conditions":[2.4055E2,2.2E1,NaN,NaN,NaN,5.0306E2,1.1E1,2.445E1,-2.98106E-1,2.324E1,1.8614E2,NaN,2.3E1,4.5E1,-2.85325E-1,NaN,1.0039E2,8.25E0,NaN,-2.9816577E-1,NaN,-1.044414E2,NaN,-1.2437429E2,-9.45959E1,6.4258E2,-2.4889688E-1,1.543E1,1.895E1,-2.998351E-1,5E0,NaN,5.6E1,4.477E1,2.63E1,3.8E1,-2.2767052E-1,-1.2276737E2,1.1E1,3.4176E2,-2.8963563E-1,1.2E1,4.9E1,-1.0832062E2,1E0,-1.7422873E-1,4.14972E1,5.3878796E-1,-1.7626552E-1,-2.7211964E-1,-1.24685735E-1,-1.39445225E-2,-2.7605116E-1,-7.617189E-2,-2.702308E-1,7.290689E-2,-1.7499056E-1,-2.4647322E-1,-4.673803E-2,-1.2264799E-1,-2.9486942E-1,2.2398274E-1,-1.106754E-1,2.1509549E-1,-5.7371907E-2,2.4484558E-1,-2.1922017E-2,-2.8555092E-1,8.801483E-2,3.8183514E-2,2.1093304E-1,-7.567391E-2,2.2480475E-2,5.7834674E-2,2.3484531E-1,1.03483714E-1,-1.8572192E-1,-1.9759888E-2,2.1842103E-1],"split_indices":[1,7,0,0,0,1,7,1,0,1,1,0,7,6,0,0,1,1,0,0,0,3,0,5,3,1,0,1,1,0,7,0,6,1,1,6,0,5,9,1,0,7,6,5,8,0,2,0,0,0,0,0,0,0,0,0,0,0,0,0,0,0,0,0,0,0,0,0,0,0,0,0,0,0,0,0,0,0,0],"split_type":[0,0,1,1,1,0,0,0,0,0,0,1,0,0,0,1,0,0,1,0,1,0,1,0,0,0,0,0,0,0,0,1,0,0,0,0,0,0,0,0,0,0,0,0,0,0,0,0,0,0,0,0,0,0,0,0,0,0,0,0,0,0,0,0,0,0,0,0,0,0,0,0,0,0,0,0,0,0,0],"sum_hessian":[2.2034373E3,1.9898049E3,2.1363239E2,1.6540258E3,3.3577917E2,1.8881572E2,2.4816671E1,6.7051E2,9.8351575E2,2.512395E2,8.4539665E1,7.457952E1,1.142362E2,9.5019045E0,1.5314768E1,2.1490005E2,4.5560992E2,1.4645943E2,1.04780075E2,7.608273E1,8.456927E0,4.029135E1,3.4288166E1,8.6668076E1,2.7568125E1,5.4397483E0,4.0621567E0,2.887221E1,1.8602785E2,4.014131E2,5.419684E1,4.9411644E1,9.704778E1,5.9806717E1,4.4973362E1,5.6771235E0,2.779804E0,3.1344786E1,8.946568E0,1.3150527E1,2.113764E1,2.87832E0,8.378976E1,2.283666E1,4.731463E0,1.3529052E0,4.086843E0,9.795117E0,1.9077093E1,1.6842659E2,1.7601261E1,9.354638E0,4.48422E1,1.572227E1,3.3689373E1,7.1445076E1,2.5602705E1,1.904947E1,4.0757244E1,6.9254956E0,3.8047867E1,2.837268E0,2.8398554E0,4.2199593E0,2.7124826E1,6.072966E0,2.873602E0,7.440751E0,5.709776E0,1.0718659E0,1.8064541E0,5.043789E1,3.3351864E1,1.4488476E1,8.348186E0,1.2108793E0,3.5205836E0,2.6888227E0,1.3980205E0],"tree_param":{"num_deleted":"0","num_feature":"10","num_nodes":"79","size_leaf_vector":"0"}},{"base_weights":[-7.6513875E-1,-8.436262E-1,-1.595335E-1,-9.352135E-1,-4.4986185E-1,-9.3758136E-2,-7.1403515E-1,-8.59301E-1,-9.873915E-1,-2.7537948E-1,-7.719054E-1,2.5858867E-1,-1.4605464E-1,-2.7883106E-1,-3.2384944E-1,-6.5348345E-1,-9.6164936E-1,-2.9660806E-1,-4.6797496E-1,-1.4104116E-1,-2.9274255E-1,-2.9857573E-1,-5.638801E-2,-2.2875094E-3,2.8229168E-1,-5.1797336E-1,4.217619E-3,4.922149E-3,-2.2823082E-1,1.6488086E-1,-8.199258E-1,-2.9852852E-1,-7.142696E-1,-1.8988131E-1,-5.5492376E-3,-2.0916346E-1,1.2087924E0,5.1705545E-1,-4.8616418E-1,4.701237E-1,-3.61653E-1,-2.542669E-1,-2.846164E-1,4.1679198E-1,-3.277752E-2,2.5162956E-1,-1.7121878E-1,-1.8767351E-1,4.24058E-1,-2.623839E-1,-1.0261523E-1,-4.641584E-2,-2.9186493E-1,-3.3875477E-2,-2.5756443E-1,7.269931E-1,-2.2273463E-1,2.5336416E-3,4.4006273E-1,-2.5897482E-1,-4.0568255E-2,2.5083774E-1,-1.5465233E-2,-1.7241834E-1,1.8378448E-1,1.4129088E-2,-1.6584945E-1,3.1493446E-3,3.3630052E-1,6.0223606E-3,-1.7072764E-1,-1.5390316E-2,1.8831666E-1],"categories":[7,9,10,13,0,4,5,6,8,10,11,12,0,1,6,8,11,12,0,1,2,3,5,6,8,11,12,1,7,9,13,0,2,3,4,5,6,7,8,9,10,11,12,8,11,12,2,3,7,9,0,1,2,3,4,5,7],"categories_nodes":[2,3,4,5,15,22,25,32,36],"categories_segments":[0,4,12,18,27,31,43,46,50],"categories_sizes":[4,8,6,9,4,12,3,4,7],"default_left":[0,0,1,1,1,1,0,0,0,0,0,0,0,0,0,1,0,0,0,0,0,0,1,0,0,1,0,0,0,0,0,0,1,0,0,0,1,0,0,0,0,0,0,0,0,0,0,0,0,0,0,0,0,0,0,0,0,0,0,0,0,0,0,0,0,0,0,0,0,0,0,0,0],"id":15,"left_children":[1,3,5,7,9,11,13,15,17,19,21,23,25,-1,27,29,31,-1,33,35,-1,-1,37,39,-1,41,43,45,-1,47,49,-1,51,-1,-1,53,55,57,59,61,63,65,-1,67,69,71,-1,-1,-1,-1,-1,-1,-1,-1,-1,-1,-1,-1,-1,-1,-1,-1,-1,-1,-1,-1,-1,-1,-1,-1,-1,-1,-1],"loss_changes":[8.260687E1,5.5145874E1,7.2622833E0,4.099243E0,1.6233265E1,3.369166E0,1.4772768E0,1.0252441E1,3.3447266E-2,1.7870502E1,1.629139E1,4.225962E0,8.836393E0,0E0,1.3052613E0,2.3927483E1,2.126007E0,0E0,2.6507968E-1,1.5126669E1,0E0,0E0,6.510004E0,3.2534158E0,0E0,4.9266405E0,1.7471305E0,1.018966E0,0E0,3.084387E1,3.4985504E0,0E0,6.27124E0,0E0,0E0,9.580255E0,2.0564735E1,5.4772778E0,1.8723884E0,1.6243736E0,2.6108117E0,2.688037E0,0E0,2.6830826E0,2.9920135E0,6.0283345E-1,0E0,0E0,0E0,0E0,0E0,0E0,0E0,0E0,0E0,0E0,0E0,0E0,0E0,0E0,0E0,0E0,0E0,0E0,0E0,0E0,0E0,0E0,0E0,0E0,0E0,0E0,0E0],"parents":[2147483647,0,0,1,1,2,2,3,3,4,4,5,5,6,6,7,7,8,8,9,9,10,10,11,11,12,12,14,14,15,15,16,16,18,18,19,19,22,22,23,23,25,25,26,26,27,27,29,29,30,30,32,32,35,35,36,36,37,37,38,38,39,39,40,40,41,41,43,43,44,44,45,45],"right_children":[2,4,6,8,10,12,14,16,18,20,22,24,26,-1,28,30,32,-1,34,36,-1,-1,38,40,-1,42,44,46,-1,48,50,-1,52,-1,-1,54,56,58,60,62,64,66,-1,68,70,72,-1,-1,-1,-1,-1,-1,-1,-1,-1,-1,-1,-1,-1,-1,-1,-1,-1,-1,-1,-1,-1,-1,-1,-1,-1,-1,-1],"split_conditions":[2.4055E2,2.2E1,NaN,NaN,NaN,NaN,6.4258E2,2.445E1,-8.9516266E1,5.329E1,1.0565E2,5.3E1,5.0306E2,-2.7883106E-1,1.1E1,NaN,1.0039E2,-2.9660806E-1,9E0,4.799E1,-2.9274255E-1,-2.9857573E-1,NaN,3.9E1,2.8229168E-1,NaN,2.8E1,4.5E1,-2.2823082E-1,5.3E1,1.895E1,-2.9852852E-1,NaN,-1.8988131E-1,-5.5492376E-3,2.63E1,NaN,-1.044414E2,1.8614E2,4E0,2.9687E2,4.6E1,-2.846164E-1,3.86171E1,4.5612057E1,4.14972E1,-1.7121878E-1,-1.8767351E-1,4.24058E-1,-2.623839E-1,-1.0261523E-1,-4.641584E-2,-2.9186493E-1,-3.3875477E-2,-2.5756443E-1,7.269931E-1,-2.2273463E-1,2.5336416E-3,4.4006273E-1,-2.5897482E-1,-4.0568255E-2,2.5083774E-1,-1.5465233E-2,-1.7241834E-1,1.8378448E-1,1.4129088E-2,-1.6584945E-1,3.1493446E-3,3.3630052E-1,6.0223606E-3,-1.7072764E-1,-1.5390316E-2,1.8831666E-1],"split_indices":[1,7,0,0,0,0,1,1,5,1,1,6,1,0,7,0,1,0,9,1,0,0,0,6,0,0,6,6,0,6,1,0,0,0,0,1,0,3,1,7,1,6,0,2,4,2,0,0,0,0,0,0,0,0,0,0,0,0,0,0,0,0,0,0,0,0,0,0,0,0,0,0,0],"split_type":[0,0,1,1,1,1,0,0,0,0,0,0,0,0,0,1,0,0,0,0,0,0,1,0,0,1,0,0,0,0,0,0,1,0,0,0,1,0,0,0,0,0,0,0,0,0,0,0,0,0,0,0,0,0,0,0,0,0,0,0,0,0,0,0,0,0,0,0,0,0,0,0,0],"sum_hessian":[1.7397385E3,1.5397865E3,1.9995195E2,1.2481088E3,2.9167783E2,1.7979378E2,2.0158173E1,5.15536E2,7.325727E2,1.903836E2,1.01294235E2,2.2726915E1,1.5706686E2,1.2097642E1,8.060531E0,1.7367302E2,3.4186298E2,7.298398E2,2.732955E0,1.6075337E2,2.9630228E1,7.6899345E1,2.4394892E1,1.7162367E1,5.5645485E0,4.449539E1,1.12571465E2,5.163704E0,2.896827E0,2.9354095E1,1.4431892E2,2.9848535E2,4.3377625E1,1.7006401E0,1.0323149E0,1.5383481E2,6.9185643E0,1.0363696E1,1.4031195E1,7.2817674E0,9.8806E0,2.8585482E1,1.5909909E1,8.418722E0,1.0415274E2,4.0086093E0,1.1550945E0,1.8280537E1,1.1073559E1,1.2875429E2,1.5564636E1,1.4216438E1,2.9161186E1,1.3500032E2,1.8834496E1,4.115196E0,2.8033683E0,7.4065347E0,2.9571614E0,6.0599113E0,7.9712834E0,3.9251473E0,3.35662E0,8.4439745E0,1.4366254E0,1.4645214E1,1.39402685E1,5.9821978E0,2.4365244E0,9.568579E1,8.466954E0,2.698582E0,1.3100274E0],"tree_param":{"num_deleted":"0","num_feature":"10","num_nodes":"73","size_leaf_vector":"0"}},{"base_weights":[-7.0958537E-1,-8.413614E-1,-2.8903857E-1,-9.116237E-1,-1.7598559E-1,-7.93377E-1,-2.1616967E-1,-8.233061E-1,-9.73498E-1,4.5326692E-1,-2.63991E-1,-9.211229E-1,-1.7964065E-1,2.7522758E-1,-2.9397425E-1,-5.840775E-1,-9.435904E-1,-9.800526E-1,-5.6662273E-1,7.720762E-1,8.6932026E-2,-7.263825E-1,-5.427847E-2,-2.9182208E-1,-5.9417576E-1,3.2300267E-1,-5.8293355E-1,-2.2497205E-1,8.055529E-1,-2.8046092E-1,-2.174388E-1,1.9102828E-1,-7.621575E-1,-2.9581144E-1,-6.598963E-1,-2.945334E-1,-4.2112488E-1,-2.1646006E-1,-7.7291507E-1,3.0643943E-1,2.358399E-1,-2.3394752E-1,6.0901475E-1,-3.1929967E-1,-9.0070105E-1,5.5902768E-2,-3.599212E-1,-2.3454124E-1,-2.1989892E-1,1.3917316E-1,-2.5278956E-1,3.2673824E-1,-7.2900426E-1,1.0678455E0,-5.135352E-2,1.9476464E-1,-3.5285076E-1,3.0048332E-1,-2.014987E-1,-2.5044787E-1,-2.944732E-2,4.0905133E-2,-2.6117176E-1,-1.767391E-1,-3.3239308E-3,2.3087505E-1,-1.8170774E-1,-2.514225E-1,-7.0408516E-2,-8.3740816E-2,1.8040717E-1,1.2471973E-2,2.5305536E-1,-2.136954E-1,1.0031041E-1,-8.58443E-2,-2.842417E-1,-1.20319925E-1,4.768406E-2,-1.4372776E-1,1.2852393E-1,1.4849947E-1,-1.9512631E-1,-1.834022E-1,2.73238E-1,-2.7857214E-1,-6.9780014E-2,3.757151E-2,3.731546E-1,-1.5146975E-1,2.2466819E-1,1.2332657E-1,-1.8692455E-1,-2.0675465E-1,-2.0440016E-2],"categories":[0,4,5,6,8,10,11,12,0,1,2,3,5,6,7,8,9,10,11,12,13,0,1,5,6,7,10,11,12,1,7,9,13,8,9,11,12,13],"categories_nodes":[3,4,6,15,21],"categories_segments":[0,8,21,29,33],"categories_sizes":[8,13,8,4,5],"default_left":[0,0,0,1,1,0,1,0,0,0,0,0,0,0,0,1,0,0,0,0,0,1,0,0,0,0,0,0,0,0,0,0,0,0,0,0,0,0,0,0,0,0,0,0,0,0,0,0,0,0,0,0,0,0,0,0,0,0,0,0,0,0,0,0,0,0,0,0,0,0,0,0,0,0,0,0,0,0,0,0,0,0,0,0,0,0,0,0,0,0,0,0,0,0,0],"id":16,"left_children":[1,3,5,7,9,11,13,15,17,19,21,23,25,27,29,31,33,35,37,39,41,43,45,-1,47,-1,49,51,53,-1,55,57,59,-1,61,-1,63,65,67,-1,69,-1,71,73,75,77,79,-1,81,-1,-1,83,85,87,89,91,93,-1,-1,-1,-1,-1,-1,-1,-1,-1,-1,-1,-1,-1,-1,-1,-1,-1,-1,-1,-1,-1,-1,-1,-1,-1,-1,-1,-1,-1,-1,-1,-1,-1,-1,-1,-1,-1,-1],"loss_changes":[7.686621E1,4.9345154E1,1.2084608E1,4.4310303E0,5.78916E0,3.1060314E0,1.1274268E1,1.0986633E1,9.3170166E-1,1.4429476E0,8.731375E0,8.029938E-4,4.899415E0,1.0933894E1,1.2218071E1,1.9024849E1,2.542694E0,1.1444092E-1,6.4250183E-1,6.666484E-1,3.7073877E0,1.7093916E0,2.1520762E0,0E0,3.3691788E-1,0E0,2.302416E0,6.2563095E0,4.5260687E0,0E0,1.2768298E1,1.9100819E1,5.2944183E0,0E0,6.4155807E0,0E0,2.3015481E-1,2.594324E0,3.707075E-2,0E0,8.181024E-1,0E0,6.3286257E-1,2.8038025E0,2.794571E-1,2.2956502E0,1.7938092E0,0E0,1.4948485E0,0E0,0E0,6.596018E0,9.350753E-1,2.3787174E0,2.4165328E0,1.0323693E1,1.6386877E1,0E0,0E0,0E0,0E0,0E0,0E0,0E0,0E0,0E0,0E0,0E0,0E0,0E0,0E0,0E0,0E0,0E0,0E0,0E0,0E0,0E0,0E0,0E0,0E0,0E0,0E0,0E0,0E0,0E0,0E0,0E0,0E0,0E0,0E0,0E0,0E0,0E0,0E0],"parents":[2147483647,0,0,1,1,2,2,3,3,4,4,5,5,6,6,7,7,8,8,9,9,10,10,11,11,12,12,13,13,14,14,15,15,16,16,17,17,18,18,19,19,20,20,21,21,22,22,24,24,26,26,27,27,28,28,30,30,31,31,32,32,34,34,36,36,37,37,38,38,40,40,42,42,43,43,44,44,45,45,46,46,48,48,51,51,52,52,53,53,54,54,55,55,56,56],"right_children":[2,4,6,8,10,12,14,16,18,20,22,24,26,28,30,32,34,36,38,40,42,44,46,-1,48,-1,50,52,54,-1,56,58,60,-1,62,-1,64,66,68,-1,70,-1,72,74,76,78,80,-1,82,-1,-1,84,86,88,90,92,94,-1,-1,-1,-1,-1,-1,-1,-1,-1,-1,-1,-1,-1,-1,-1,-1,-1,-1,-1,-1,-1,-1,-1,-1,-1,-1,-1,-1,-1,-1,-1,-1,-1,-1,-1,-1,-1,-1],"split_conditions":[2.2E1,2.6384E2,7.24E0,NaN,NaN,4.35017E1,NaN,2.324E1,2.4055E2,-1.1222899E2,6.4258E2,6.2E1,4E0,4.6E1,1.599E1,NaN,1.0039E2,-8.9516266E1,4E0,5.1E1,-1.0923424E2,NaN,1E1,-2.9182208E-1,4E0,3.2300267E-1,4.4370358E1,1.114E1,1E1,-2.8046092E-1,2.259E1,1.658E1,1.895E1,-2.9581144E-1,5E0,-2.945334E-1,4.584E1,3.5E1,5.3E1,3.0643943E-1,3.42652E1,-2.3394752E-1,-1.04835E2,4.2026E2,3.37467E1,3.616793E1,2E1,-2.3454124E-1,6.8E1,1.3917316E-1,-2.5278956E-1,8.55E0,2.6384E2,-1.2218294E2,5E0,5.6E1,1.1022E2,3.0048332E-1,-2.014987E-1,-2.5044787E-1,-2.944732E-2,4.0905133E-2,-2.6117176E-1,-1.767391E-1,-3.3239308E-3,2.3087505E-1,-1.8170774E-1,-2.514225E-1,-7.0408516E-2,-8.3740816E-2,1.8040717E-1,1.2471973E-2,2.5305536E-1,-2.136954E-1,1.0031041E-1,-8.58443E-2,-2.842417E-1,-1.20319925E-1,4.768406E-2,-1.4372776E-1,1.2852393E-1,1.4849947E-1,-1.9512631E-1,-1.834022E-1,2.73238E-1,-2.7857214E-1,-6.9780014E-2,3.757151E-2,3.731546E-1,-1.5146975E-1,2.2466819E-1,1.2332657E-1,-1.8692455E-1,-2.0675465E-1,-2.0440016E-2],"split_indices":[7,1,1,0,0,4,0,1,1,5,1,6,9,6,1,0,1,5,7,6,5,0,9,0,8,0,4,1,9,0,1,1,1,0,7,0,1,6,6,0,4,0,3,1,2,4,7,0,6,0,0,1,1,5,8,6,1,0,0,0,0,0,0,0,0,0,0,0,0,0,0,0,0,0,0,0,0,0,0,0,0,0,0,0,0,0,0,0,0,0,0,0,0,0,0],"split_type":[0,0,0,1,1,0,1,0,0,0,0,0,0,0,0,1,0,0,0,0,0,1,0,0,0,0,0,0,0,0,0,0,0,0,0,0,0,0,0,0,0,0,0,0,0,0,0,0,0,0,0,0,0,0,0,0,0,0,0,0,0,0,0,0,0,0,0,0,0,0,0,0,0,0,0,0,0,0,0,0,0,0,0,0,0,0,0,0,0,0,0,0,0,0,0],"sum_hessian":[1.390415E3,1.0579208E3,3.3249432E2,9.565418E2,1.01378914E2,4.072712E1,2.917672E2,3.999585E2,5.565834E2,1.1929644E1,8.9449265E1,3.329591E1,7.4312086E0,3.9535023E1,2.5223218E2,1.3577559E2,2.641829E2,5.4637274E2,1.0210595E1,5.786378E0,6.1432657E0,2.7141577E1,6.230769E1,2.7050114E1,6.245797E0,1.4000713E0,6.0311375E0,2.064169E1,1.8893332E1,2.5711704E1,2.2652048E2,2.5352846E1,1.10422745E2,2.2764566E2,3.6537243E1,5.439371E2,2.435665E0,4.5450573E0,5.665538E0,3.3319185E0,2.4544594E0,2.1237516E0,4.019514E0,8.986734E0,1.8154842E1,4.6398556E1,1.5909133E1,3.4349747E0,2.8108222E0,1.0424948E0,4.9886427E0,1.0022681E1,1.0619008E1,1.4277066E1,4.6162667E0,5.5904617E1,1.7061586E2,1.2988159E1,1.2364686E1,9.92982E1,1.1124545E1,7.7184196E0,2.8818825E1,1.417951E0,1.0177139E0,1.0097846E0,3.5352726E0,4.5567493E0,1.1087881E0,1.1170201E0,1.3374394E0,1.5196369E0,2.4998772E0,5.556287E0,3.4304478E0,1.7873868E0,1.6367456E1,8.005301E0,3.8393257E1,1.4160746E1,1.7483869E0,1.0001972E0,1.8106252E0,3.8278573E0,6.1948237E0,6.9530663E0,3.665942E0,2.5156667E0,1.1761399E1,3.1819475E0,1.434319E0,4.4604015E1,1.1300602E1,7.756691E1,9.304895E1],"tree_param":{"num_deleted":"0","num_feature":"10","num_nodes":"95","size_leaf_vector":"0"}},{"base_weights":[-6.4674026E-1,-7.988585E-1,-2.3744783E-1,-8.836009E-1,-1.4070337E-1,-7.40336E-1,-1.7526264E-1,-7.9898655E-1,-9.845641E-1,3.943885E-1,-2.1425977E-1,1.7312554E-1,-8.4314483E-1,1.412492E-1,-2.6190057E-1,-5.7618016E-1,-9.316221E-1,-9.966043E-1,-4.7773394E-1,1.3286936E-1,2.3970084E-1,-6.733111E-1,-4.174248E-2,-2.0480965E-1,3.9793298E-1,1.3884647E-2,-9.0242535E-1,-6.2254804E-1,3.6922595E-1,-5.9623893E-2,-3.9920136E-1,5.500866E-1,-6.60942E-1,-6.4092445E-1,-2.925713E-1,-2.9990858E-1,-8.2229756E-2,-1.5934475E-1,-2.1098174E-1,4.740808E-1,-3.5622814E-1,-2.723043E-1,-8.704972E-1,3.7948817E-1,-8.798054E-2,-2.9793678E-2,-2.802393E-1,-7.674909E-1,7.273019E-2,8.153523E-1,-4.706995E-2,-2.1485221E-1,6.790294E-1,-2.642251E-1,-8.033597E-1,4.0211466E-1,-8.7329E-3,-1.8622497E-2,-2.2960319E-1,2.1447639E-1,-2.6218322E-1,1.8534333E-1,-1.5462166E-1,-5.3909823E-2,2.5931612E-1,-2.6299056E-1,1.1918368E-1,1.310888E-1,-1.7439896E-1,-7.386767E-2,-2.7864876E-1,-1.115004E-1,2.617191E-1,4.3684278E-2,-5.9165984E-2,-2.7935684E-1,-1.5402227E-2,5.3569627E-1,8.780626E-2,3.0891046E-1,-8.778859E-2,-3.1309053E-2,-2.1830569E-1,5.5872545E-2,3.7985224E-1,-1.2678112E-1,3.6000043E-2,-2.7229813E-1,2.3311462E-1],"categories":[0,4,6,8,11,12,0,1,2,3,5,6,7,8,9,10,11,12,13,0,1,2,3,4,5,6,8,9,10,11,12,13,0,1,5,6,7,12,1,3,5,7,9,10,13,2,3,5,7,9,10,8,9,11,12,13,0,1,2,3,4,6,7,8,9,11,12],"categories_nodes":[3,4,5,14,15,16,21,49],"categories_segments":[0,6,19,32,38,45,51,56],"categories_sizes":[6,13,13,6,7,6,5,11],"default_left":[0,0,0,1,1,1,0,0,0,0,0,0,0,0,1,1,1,0,0,0,0,1,0,0,0,0,0,0,0,0,0,0,0,0,0,0,0,0,0,0,0,0,0,0,0,0,0,0,0,1,0,0,0,0,0,0,0,0,0,0,0,0,0,0,0,0,0,0,0,0,0,0,0,0,0,0,0,0,0,0,0,0,0,0,0,0,0,0,0],"id":17,"left_children":[1,3,5,7,9,11,13,15,17,19,21,23,25,27,29,31,33,35,37,39,-1,41,43,-1,-1,-1,45,47,49,51,53,55,57,59,-1,-1,-1,61,-1,63,65,67,69,71,73,-1,-1,75,-1,77,79,81,83,85,87,-1,-1,-1,-1,-1,-1,-1,-1,-1,-1,-1,-1,-1,-1,-1,-1,-1,-1,-1,-1,-1,-1,-1,-1,-1,-1,-1,-1,-1,-1,-1,-1,-1,-1],"loss_changes":[7.044992E1,4.5985474E1,9.528494E0,5.468811E0,3.8431208E0,3.308693E0,7.6100254E0,1.1392761E1,1.5350037E0,1.1522623E0,6.6718893E0,5.0872083E0,1.6467896E0,1.0677306E1,6.007558E0,1.4994099E1,2.5627136E0,4.4284058E-1,5.750065E-1,1.574595E0,0E0,1.5850792E0,1.2518319E0,0E0,0E0,0E0,6.3516235E-1,1.9618535E0,8.736528E0,1.03486595E1,6.8350296E0,5.198813E0,8.892239E0,1.19096365E1,0E0,0E0,0E0,1.7740277E0,0E0,1.5309156E0,1.9295148E0,2.2378738E0,3.1724453E-1,2.6849515E0,1.4878874E0,0E0,0E0,1.4025116E0,0E0,1.0970172E1,6.9572506E0,4.1335025E0,4.304707E0,6.034579E0,5.95578E0,0E0,0E0,0E0,0E0,0E0,0E0,0E0,0E0,0E0,0E0,0E0,0E0,0E0,0E0,0E0,0E0,0E0,0E0,0E0,0E0,0E0,0E0,0E0,0E0,0E0,0E0,0E0,0E0,0E0,0E0,0E0,0E0,0E0,0E0],"parents":[2147483647,0,0,1,1,2,2,3,3,4,4,5,5,6,6,7,7,8,8,9,9,10,10,11,11,12,12,13,13,14,14,15,15,16,16,17,17,18,18,19,19,21,21,22,22,26,26,27,27,28,28,29,29,30,30,31,31,32,32,33,33,37,37,39,39,40,40,41,41,42,42,43,43,44,44,47,47,49,49,50,50,51,51,52,52,53,53,54,54],"right_children":[2,4,6,8,10,12,14,16,18,20,22,24,26,28,30,32,34,36,38,40,-1,42,44,-1,-1,-1,46,48,50,52,54,56,58,60,-1,-1,-1,62,-1,64,66,68,70,72,74,-1,-1,76,-1,78,80,82,84,86,88,-1,-1,-1,-1,-1,-1,-1,-1,-1,-1,-1,-1,-1,-1,-1,-1,-1,-1,-1,-1,-1,-1,-1,-1,-1,-1,-1,-1,-1,-1,-1,-1,-1,-1],"split_conditions":[2.2E1,2.6384E2,7.24E0,NaN,NaN,NaN,4E0,2.507E1,2.4055E2,2.9687E2,6.4258E2,6.1E1,2.5E1,3.65276E1,NaN,NaN,NaN,-8.9516266E1,4E0,3.94584E1,2.3970084E-1,NaN,3.1E1,-2.0480965E-1,3.9793298E-1,1.3884647E-2,-1.2437429E2,9.2742E2,4.04815E1,6E1,5.6E1,1.774E1,4E0,5E0,-2.925713E-1,-2.9990858E-1,-8.2229756E-2,3.5E1,-2.1098174E-1,3.357879E1,4.16125E1,4E0,3.37467E1,4.0306686E1,3.8307228E1,-2.9793678E-2,-2.802393E-1,5.5E1,7.273019E-2,NaN,-1.230614E2,-9.5669106E1,4.693E1,-1.046556E2,3.4176E2,4.0211466E-1,-8.7329E-3,-1.8622497E-2,-2.2960319E-1,2.1447639E-1,-2.6218322E-1,1.8534333E-1,-1.5462166E-1,-5.3909823E-2,2.5931612E-1,-2.6299056E-1,1.1918368E-1,1.310888E-1,-1.7439896E-1,-7.386767E-2,-2.7864876E-1,-1.115004E-1,2.617191E-1,4.3684278E-2,-5.9165984E-2,-2.7935684E-1,-1.5402227E-2,5.3569627E-1,8.780626E-2,3.0891046E-1,-8.778859E-2,-3.1309053E-2,-2.1830569E-1,5.5872545E-2,3.7985224E-1,-1.2678112E-1,3.6000043E-2,-2.7229813E-1,2.3311462E-1],"split_indices":[7,1,1,0,0,0,9,1,1,1,1,6,6,2,0,0,0,5,7,2,0,0,6,0,0,0,5,1,2,6,6,1,7,7,0,0,0,6,0,4,2,7,2,4,4,0,0,6,0,0,3,5,1,3,1,0,0,0,0,0,0,0,0,0,0,0,0,0,0,0,0,0,0,0,0,0,0,0,0,0,0,0,0,0,0,0,0,0,0],"split_type":[0,0,0,1,1,1,0,0,0,0,0,0,0,0,1,1,1,0,0,0,0,1,0,0,0,0,0,0,0,0,0,0,0,0,0,0,0,0,0,0,0,0,0,0,0,0,0,0,0,1,0,0,0,0,0,0,0,0,0,0,0,0,0,0,0,0,0,0,0,0,0,0,0,0,0,0,0,0,0,0,0,0,0,0,0,0,0,0,0],"sum_hessian":[1.1335764E3,8.257319E2,3.0784454E2,7.312371E2,9.449475E1,3.2677563E1,2.7516696E2,4.0267813E2,3.2855896E2,1.0892766E1,8.360199E1,3.2365646E0,2.9441E1,5.8998642E1,2.1616833E2,1.5225618E2,2.5042197E2,3.1999097E2,8.568008E0,7.4232163E0,3.4695497E0,2.2043518E1,6.1558468E1,2.09214E0,1.1444248E0,1.8533392E0,2.758766E1,1.3164035E1,4.5834606E1,8.798288E1,1.2818546E2,1.0272417E1,1.4198376E2,3.471845E1,2.157035E2,3.1824585E2,1.7451189E0,4.2603073E0,4.3077016E0,4.390767E0,3.0324492E0,8.05119E0,1.3992327E1,5.375962E0,5.6182507E1,1.2046944E0,2.6382965E1,1.1371285E1,1.7927488E0,2.1661898E1,2.4172709E1,7.329007E1,1.4692811E1,9.733302E1,3.0852423E1,3.788676E0,6.4837413E0,2.1314531E1,1.20669235E2,4.788435E0,2.9930016E1,1.1076242E0,3.1526833E0,1.8430948E0,2.5476723E0,1.697009E0,1.3354403E0,2.3176901E0,5.7335005E0,1.6418847E0,1.2350442E1,2.2274559E0,3.148506E0,1.7795683E1,3.838682E1,9.011219E0,2.360067E0,6.7375402E0,1.4924357E1,3.8959074E0,2.0276802E1,6.1289005E1,1.2001062E1,8.704429E0,5.988383E0,6.885212E1,2.8480906E1,2.9341667E1,1.5107548E0],"tree_param":{"num_deleted":"0","num_feature":"10","num_nodes":"89","size_leaf_vector":"0"}},{"base_weights":[-5.766982E-1,-7.4875194E-1,-1.8856466E-1,-8.500839E-1,-1.0864188E-1,-6.7866695E-1,-1.3695979E-1,-7.4897045E-1,-9.77175E-1,1.6684365E-1,-2.3890492E-1,-8.671228E-1,2.231786E-2,1.01171084E-1,-2.2300114E-1,-5.044528E-1,-9.0859574E-1,-9.9372715E-1,-4.050844E-1,3.3864003E-1,-5.134238E-1,-4.9833697E-1,-1.1138278E-1,-2.8375053E-1,-4.8276475E-1,-4.576922E-1,3.4068608E-1,-6.073151E-2,7.2664446E-1,-2.836139E-1,-1.5664835E-1,6.7658134E-2,-6.566052E-1,-5.717332E-1,-2.8955853E-1,-2.9936266E-1,-7.0689976E-2,-5.2891326E-1,5.6107715E-2,7.945573E-1,6.0720574E-2,1.5841955E-1,-2.489589E-1,1.3353947E-1,-7.3848146E-1,-1.9867459E-1,-4.758983E-2,-2.1346676E-1,-1.026772E-1,9.9999435E-2,-2.306002E-1,4.8702773E-1,-1.8034245E-1,1.5036694E0,-6.3351095E-2,1.7936544E-1,-2.9598466E-1,-1.8041342E-1,2.847726E-1,-2.3714869E-1,1.207795E-2,-2.8562468E-1,4.670771E-2,-3.164589E-2,-2.39235E-1,6.648435E-2,2.9139313E-1,1.6265823E-1,-4.4070236E-2,-1.5451226E-1,1.1005814E-1,-2.5332808E-1,-5.1770855E-2,5.8652442E-2,-6.329185E-2,-1.6283107E-1,1.1584857E-1,-2.256754E-1,3.010391E-1,-1.4252172E-1,9.135639E-2,6.5455806E-1,2.8177083E-1,-1.7678599E-1,1.3490866E-1,9.646438E-2,-2.5906938E-1,-1.6654103E-1,-1.0239419E-2],"categories":[0,4,6,8,11,12,0,1,5,6,7,10,12,1,5,7,9,10,13,2,3,5,7,9,10,1,2,3,5,6,7,8,9,10,13,0,1,2,3,5,6,7,8,9,11,12,0,1,2,3,5,6,7,8,9,10,11,12,13,0,1,2,3,5,6,7,8,9,10,11,12,13,0,1,2,3,4,6,8,9,11,12],"categories_nodes":[3,6,15,16,19,20,21,27,28,55],"categories_segments":[0,6,13,19,25,35,46,59,71,72],"categories_sizes":[6,7,6,6,10,11,13,12,1,10],"default_left":[0,0,0,1,0,0,1,0,0,0,0,0,0,0,0,1,1,0,0,1,1,1,0,0,0,0,0,1,1,0,0,0,0,0,0,0,0,0,0,0,0,0,0,0,0,0,0,0,0,0,0,0,0,0,0,1,0,0,0,0,0,0,0,0,0,0,0,0,0,0,0,0,0,0,0,0,0,0,0,0,0,0,0,0,0,0,0,0,0],"id":18,"left_children":[1,3,5,7,9,11,13,15,17,19,21,23,25,27,29,31,33,35,37,39,41,43,45,-1,47,49,-1,51,53,-1,55,57,59,61,-1,-1,-1,63,-1,65,67,-1,-1,69,71,-1,73,-1,75,-1,-1,77,79,81,83,85,87,-1,-1,-1,-1,-1,-1,-1,-1,-1,-1,-1,-1,-1,-1,-1,-1,-1,-1,-1,-1,-1,-1,-1,-1,-1,-1,-1,-1,-1,-1,-1,-1],"loss_changes":[6.2806366E1,4.2248444E1,7.2630615E0,6.5082397E0,3.2824554E0,3.6461935E0,5.4397354E0,1.1955658E1,1.9302979E0,3.6329198E0,1.9877601E0,1.9874954E-1,4.149361E0,7.220099E0,9.176097E0,1.1175297E1,3.0933075E0,5.156555E-1,7.306062E-1,3.0222714E0,2.5359588E0,3.1434312E0,1.468859E0,0E0,4.247601E-1,1.5989536E0,0E0,3.836417E0,9.086964E0,0E0,8.45071E0,1.69496E1,9.464905E0,8.435958E0,0E0,0E0,0E0,7.557707E-1,0E0,7.0576763E-1,1.6928883E0,0E0,0E0,1.153319E0,7.352104E-1,0E0,1.6038219E0,0E0,9.23785E-1,0E0,0E0,7.490714E0,6.959748E0,7.93005E-1,2.4838119E0,8.166279E0,8.610473E0,0E0,0E0,0E0,0E0,0E0,0E0,0E0,0E0,0E0,0E0,0E0,0E0,0E0,0E0,0E0,0E0,0E0,0E0,0E0,0E0,0E0,0E0,0E0,0E0,0E0,0E0,0E0,0E0,0E0,0E0,0E0,0E0],"parents":[2147483647,0,0,1,1,2,2,3,3,4,4,5,5,6,6,7,7,8,8,9,9,10,10,11,11,12,12,13,13,14,14,15,15,16,16,17,17,18,18,19,19,20,20,21,21,22,22,24,24,25,25,27,27,28,28,30,30,31,31,32,32,33,33,37,37,39,39,40,40,43,43,44,44,46,46,48,48,51,51,52,52,53,53,54,54,55,55,56,56],"right_children":[2,4,6,8,10,12,14,16,18,20,22,24,26,28,30,32,34,36,38,40,42,44,46,-1,48,50,-1,52,54,-1,56,58,60,62,-1,-1,-1,64,-1,66,68,-1,-1,